{"learner":{"attributes":{"scikit_learn":"{\"_estimator_type\": \"regressor\"}"},"feature_names":["week","NDVI","FAPAR","LST","SWI","MT","MXT","PA","RH","WS","EL","rail_dist","main_dist","small_dist","city_dist","non_city_dist","LC_1.0","LC_2.0","LC_3.0","LC_4.0","LC_5.0","LC_6.0","LC_7.0","LC_8.0","LC_9.0"],"feature_types":["int","float","float","float","float","float","float","float","float","float","float","float","float","float","float","float","i","i","i","i","i","i","i","i","i"],"gradient_booster":{"model":{"gbtree_model_param":{"num_parallel_tree":"1","num_trees":"200"},"iteration_indptr":[0,1,2,3,4,5,6,7,8,9,10,11,12,13,14,15,16,17,18,19,20,21,22,23,24,25,26,27,28,29,30,31,32,33,34,35,36,37,38,39,40,41,42,43,44,45,46,47,48,49,50,51,52,53,54,55,56,57,58,59,60,61,62,63,64,65,66,67,68,69,70,71,72,73,74,75,76,77,78,79,80,81,82,83,84,85,86,87,88,89,90,91,92,93,94,95,96,97,98,99,100,101,102,103,104,105,106,107,108,109,110,111,112,113,114,115,116,117,118,119,120,121,122,123,124,125,126,127,128,129,130,131,132,133,134,135,136,137,138,139,140,141,142,143,144,145,146,147,148,149,150,151,152,153,154,155,156,157,158,159,160,161,162,163,164,165,166,167,168,169,170,171,172,173,174,175,176,177,178,179,180,181,182,183,184,185,186,187,188,189,190,191,192,193,194,195,196,197,198,199,200],"tree_info":[0,0,0,0,0,0,0,0,0,0,0,0,0,0,0,0,0,0,0,0,0,0,0,0,0,0,0,0,0,0,0,0,0,0,0,0,0,0,0,0,0,0,0,0,0,0,0,0,0,0,0,0,0,0,0,0,0,0,0,0,0,0,0,0,0,0,0,0,0,0,0,0,0,0,0,0,0,0,0,0,0,0,0,0,0,0,0,0,0,0,0,0,0,0,0,0,0,0,0,0,0,0,0,0,0,0,0,0,0,0,0,0,0,0,0,0,0,0,0,0,0,0,0,0,0,0,0,0,0,0,0,0,0,0,0,0,0,0,0,0,0,0,0,0,0,0,0,0,0,0,0,0,0,0,0,0,0,0,0,0,0,0,0,0,0,0,0,0,0,0,0,0,0,0,0,0,0,0,0,0,0,0,0,0,0,0,0,0,0,0,0,0,0,0,0,0,0,0,0,0],"trees":[{"base_weights":[-5.221189E-1,2.6444712E0,-8.9312935E-1,2.0729339E-1,3.5734055E0,2.3372366E-1,-1.0008605E0,1.2232617E0,-6.8912125E-1,1.5528345E0,4.6908207E0,-3.2385522E-1,8.2874656E-1,2.524898E-1,-1.0498861E0,-7.92032E-1,2.4788826E0,-7.337194E-1,1.2398853E-1,1.9697914E0,2.3257314E-1,5.022848E0,1.5481734E0,6.5691894E-1,-9.6023715E-1,3.0610461E0,2.4315727E-1,-3.666645E-1,4.449565E0,-3.7381962E-1,-1.0951048E0,-0E0,-2.317545E-1,8.942795E-1,1.9059283E-1,-2.1037672E-1,-7.027755E-3,-6.732616E-2,6.357739E-1,3.524068E-1,-3.9164737E-2,1.3969561E-1,1.3413392E0,-1.4156716E-1,5.128567E-1,6.2412107E-1,2.4415433E-2,-2.6157704E-1,1.3171507E-1,-5.131698E-2,9.3969095E-1,4.1693667E-1,-3.566756E-2,7.454467E-1,-1.6465361E-1,-5.3437818E-2,1.2543201E0,1.3774036E-2,-1.7908211E-1,-1.7470394E-1,-2.9133087E-1],"categories":[],"categories_nodes":[],"categories_segments":[],"categories_sizes":[],"default_left":[0,0,0,0,0,0,0,0,0,0,0,0,0,0,0,0,0,0,0,0,0,0,0,0,0,0,0,0,0,0,0,0,0,0,0,0,0,0,0,0,0,0,0,0,0,0,0,0,0,0,0,0,0,0,0,0,0,0,0,0,0],"id":0,"left_children":[1,3,5,7,9,11,13,15,17,19,21,23,25,27,29,31,33,35,-1,37,39,41,43,45,47,49,51,53,55,57,59,-1,-1,-1,-1,-1,-1,-1,-1,-1,-1,-1,-1,-1,-1,-1,-1,-1,-1,-1,-1,-1,-1,-1,-1,-1,-1,-1,-1,-1,-1],"loss_changes":[5.677862E3,1.1432136E3,5.260215E2,1.3414572E2,7.992715E2,1.2715773E2,2.4385376E2,1.820881E2,5.4274673E0,7.214145E1,2.1388672E2,1.2599541E2,2.376918E2,4.0018384E2,1.1398535E2,1.9057026E0,6.197351E1,3.6231728E0,0E0,1.12010925E2,1.7189632E1,1.1577832E2,2.8968414E1,7.6220634E1,1.0225838E1,7.2667145E1,7.943054E1,1.214003E2,4.029245E1,3.3272144E1,3.4717773E1,0E0,0E0,0E0,0E0,0E0,0E0,0E0,0E0,0E0,0E0,0E0,0E0,0E0,0E0,0E0,0E0,0E0,0E0,0E0,0E0,0E0,0E0,0E0,0E0,0E0,0E0,0E0,0E0,0E0,0E0],"parents":[2147483647,0,0,1,1,2,2,3,3,4,4,5,5,6,6,7,7,8,8,9,9,10,10,11,11,12,12,13,13,14,14,15,15,16,16,17,17,19,19,20,20,21,21,22,22,23,23,24,24,25,25,26,26,27,27,28,28,29,29,30,30],"right_children":[2,4,6,8,10,12,14,16,18,20,22,24,26,28,30,32,34,36,-1,38,40,42,44,46,48,50,52,54,56,58,60,-1,-1,-1,-1,-1,-1,-1,-1,-1,-1,-1,-1,-1,-1,-1,-1,-1,-1,-1,-1,-1,-1,-1,-1,-1,-1,-1,-1,-1,-1],"split_conditions":[4.08E-1,3.3E1,4E-1,3.9E0,1.814E1,3.3E1,6.116E1,2.419E0,2.4271E2,3.8E1,4.026E1,3.354E0,3.012E1,1.2661E1,5.2E-1,1.1945E1,3.524E1,2.1E0,1.2398853E-1,3.5E1,2.8E-1,2.5E1,2.75E0,2.62E-1,3.7871E2,1.2141E1,7.315E1,1.97E1,1.6343E1,5.086E1,1.2E0,-0E0,-2.317545E-1,8.942795E-1,1.9059283E-1,-2.1037672E-1,-7.027755E-3,-6.732616E-2,6.357739E-1,3.524068E-1,-3.9164737E-2,1.3969561E-1,1.3413392E0,-1.4156716E-1,5.128567E-1,6.2412107E-1,2.4415433E-2,-2.6157704E-1,1.3171507E-1,-5.131698E-2,9.3969095E-1,4.1693667E-1,-3.566756E-2,7.454467E-1,-1.6465361E-1,-5.3437818E-2,1.2543201E0,1.3774036E-2,-1.7908211E-1,-1.7470394E-1,-2.9133087E-1],"split_indices":[1,0,2,11,5,0,8,12,10,0,4,11,4,12,1,3,10,14,0,0,1,6,9,2,10,3,8,6,3,10,11,0,0,0,0,0,0,0,0,0,0,0,0,0,0,0,0,0,0,0,0,0,0,0,0,0,0,0,0,0,0],"split_type":[0,0,0,0,0,0,0,0,0,0,0,0,0,0,0,0,0,0,0,0,0,0,0,0,0,0,0,0,0,0,0,0,0,0,0,0,0,0,0,0,0,0,0,0,0,0,0,0,0,0,0,0,0,0,0,0,0,0,0,0,0],"sum_hessian":[4.8230977E3,5.0343805E2,4.3196597E3,1.4026202E2,3.6317603E2,3.761759E2,3.943484E3,6.5409996E1,7.485203E1,1.3246208E2,2.3071393E2,1.945879E2,1.8158801E2,1.475146E2,3.7959692E3,2.5452425E1,3.9957573E1,7.37573E1,1.094728E0,9.907288E1,3.3389202E1,2.0662991E2,2.4084015E1,7.6220436E1,1.1836746E2,3.4483932E1,1.4710408E2,1.3123051E2,1.6284079E1,2.4070332E2,3.555266E3,3.694707E0,2.1757719E1,2.339981E1,1.655776E1,6.554684E1,8.21046E0,1.7515648E1,8.1557236E1,6.568368E0,2.6820835E1,6.705209E0,1.999247E2,3.694707E0,2.0389309E1,1.5599874E1,6.0620564E1,1.1617801E2,2.189456E0,5.199958E0,2.9283974E1,2.996818E1,1.17135895E2,7.252573E0,1.2397794E2,1.231569E0,1.505251E1,1.0276759E2,1.3793573E2,2.0786148E2,3.3474045E3],"tree_param":{"num_deleted":"0","num_feature":"25","num_nodes":"61","size_leaf_vector":"1"}},{"base_weights":[-4.8017013E-1,1.0004734E0,-8.749483E-1,-5.9951898E-2,1.3569545E0,3.9824283E-1,-9.3989784E-1,1.5434629E0,-2.4900125E-1,5.323589E-1,1.7058867E0,-4.298165E-1,1.1507342E0,-3.9001563E-1,-1.0330455E0,-5.350568E-1,2.2148094E0,-3.7600797E-1,2.609155E0,1.021672E0,-2.7524382E-1,-5.8565414E-1,1.7715015E0,1.9032872E0,-8.203431E-1,-1.8069418E-1,2.1138015E0,-6.529693E-1,5.7975605E-2,-5.609451E-1,-1.06362E0,-1.504579E-1,-0E0,6.423646E-1,-3.3255663E-2,1.9491236E-1,-1.4876501E-1,8.0691105E-1,-4.478671E-2,-2.7133252E-3,3.2215405E-1,1.099517E-1,-1.7740516E-1,3.965524E-2,-1.9255325E-1,3.2732345E-2,4.857196E-1,-6.863996E-2,5.873259E-1,-2.5824353E-1,-0E0,-2.4862136E-1,4.1626468E-1,-3.762256E-2,6.573291E-1,3.7716575E-2,-1.942624E-1,3.556932E-1,-7.7906206E-2,2.5324488E-1,-2.545684E-1,-2.1351524E-1,-2.8678617E-1],"categories":[],"categories_nodes":[],"categories_segments":[],"categories_sizes":[],"default_left":[0,0,0,0,0,0,0,0,0,0,0,0,0,0,0,0,0,0,0,0,0,0,0,0,0,0,0,0,0,0,0,0,0,0,0,0,0,0,0,0,0,0,0,0,0,0,0,0,0,0,0,0,0,0,0,0,0,0,0,0,0,0,0],"id":1,"left_children":[1,3,5,7,9,11,13,15,17,19,21,23,25,27,29,31,33,35,37,39,41,43,45,47,49,51,53,55,57,59,61,-1,-1,-1,-1,-1,-1,-1,-1,-1,-1,-1,-1,-1,-1,-1,-1,-1,-1,-1,-1,-1,-1,-1,-1,-1,-1,-1,-1,-1,-1,-1,-1],"loss_changes":[2.5640312E3,3.5009344E2,2.8780054E2,7.204782E1,1.9474402E2,1.0807152E2,1.666311E2,3.991837E1,7.994535E1,8.481827E1,7.700818E1,8.073675E1,1.181879E2,5.740497E1,3.7724365E1,8.1079006E-2,1.4134468E1,4.733749E1,1.6222797E1,3.0420258E1,2.4459919E1,2.5070467E0,7.319946E1,1.2952126E1,1.0661888E1,6.1606148E1,5.201454E1,2.3664062E1,8.695444E1,1.1861147E2,2.1068848E1,0E0,0E0,0E0,0E0,0E0,0E0,0E0,0E0,0E0,0E0,0E0,0E0,0E0,0E0,0E0,0E0,0E0,0E0,0E0,0E0,0E0,0E0,0E0,0E0,0E0,0E0,0E0,0E0,0E0,0E0,0E0,0E0],"parents":[2147483647,0,0,1,1,2,2,3,3,4,4,5,5,6,6,7,7,8,8,9,9,10,10,11,11,12,12,13,13,14,14,15,15,16,16,17,17,18,18,19,19,20,20,21,21,22,22,23,23,24,24,25,25,26,26,27,27,28,28,29,29,30,30],"right_children":[2,4,6,8,10,12,14,16,18,20,22,24,26,28,30,32,34,36,38,40,42,44,46,48,50,52,54,56,58,60,62,-1,-1,-1,-1,-1,-1,-1,-1,-1,-1,-1,-1,-1,-1,-1,-1,-1,-1,-1,-1,-1,-1,-1,-1,-1,-1,-1,-1,-1,-1,-1,-1],"split_conditions":[4.68E-1,3.3E1,6.099E1,9.49E-1,1.756E1,1.7539E1,4.79E-1,2.121E0,3.2533E2,6.143E1,7.01E1,1.969E1,5.87E1,3.4E1,1.2E0,8.48E-1,5.109E0,1.84E-1,2.4E0,2.07E1,2.87E-1,2.38E-1,2.81E0,9.015E0,1E0,3.743E1,8.48E-1,6.554E1,7.25E1,3.6E1,6.26E-1,-1.504579E-1,-0E0,6.423646E-1,-3.3255663E-2,1.9491236E-1,-1.4876501E-1,8.0691105E-1,-4.478671E-2,-2.7133252E-3,3.2215405E-1,1.099517E-1,-1.7740516E-1,3.965524E-2,-1.9255325E-1,3.2732345E-2,4.857196E-1,-6.863996E-2,5.873259E-1,-2.5824353E-1,-0E0,-2.4862136E-1,4.1626468E-1,-3.762256E-2,6.573291E-1,3.7716575E-2,-1.942624E-1,3.556932E-1,-7.7906206E-2,2.5324488E-1,-2.545684E-1,-2.1351524E-1,-2.8678617E-1],"split_indices":[1,0,8,11,5,3,2,12,10,10,8,6,8,0,11,11,12,2,14,6,2,1,9,3,24,4,14,8,8,10,1,0,0,0,0,0,0,0,0,0,0,0,0,0,0,0,0,0,0,0,0,0,0,0,0,0,0,0,0,0,0,0,0],"split_type":[0,0,0,0,0,0,0,0,0,0,0,0,0,0,0,0,0,0,0,0,0,0,0,0,0,0,0,0,0,0,0,0,0,0,0,0,0,0,0,0,0,0,0,0,0,0,0,0,0,0,0,0,0,0,0,0,0,0,0,0,0,0,0],"sum_hessian":[4.377881E3,9.201515E2,3.4577295E3,2.3188153E2,6.8826996E2,1.6658292E2,3.2911467E3,2.1532707E1,2.1034882E2,2.0770201E2,4.8056793E2,7.970739E1,8.6875534E1,4.8015466E2,2.810992E3,5.2485914E0,1.6284117E1,2.0447705E2,5.871771E0,1.2914597E2,7.855603E1,1.2392997E1,4.6817493E2,9.301258E0,7.040613E1,3.743973E1,4.9435802E1,3.022564E2,1.7789825E2,1.7608722E2,2.6349048E3,4.221308E0,1.0272831E0,1.4701082E1,1.5830343E0,2.8501287E1,1.7597577E2,4.79415E0,1.0776212E0,2.2647902E1,1.0649807E2,2.843198E1,5.0124054E1,1.5995415E0,1.0793455E1,2.6705805E1,4.4146915E2,1.2401679E0,8.06109E0,5.7722347E1,1.2683783E1,2.7410648E1,1.0029081E1,7.8302755E0,4.160553E1,3.1149746E1,2.7110666E2,3.632721E1,1.4157104E2,3.644813E1,1.3963908E2,3.8088406E2,2.2540208E3],"tree_param":{"num_deleted":"0","num_feature":"25","num_nodes":"63","size_leaf_vector":"1"}},{"base_weights":[-4.286326E-1,6.602659E-1,-8.195163E-1,-1.1457742E-1,9.1400117E-1,3.2651326E-1,-8.859861E-1,3.0750373E-1,-6.109649E-1,1.293153E0,4.1381192E-1,-5.249047E-2,1.4593242E0,-4.8589987E-1,-1.0065384E0,-5.8480906E-1,8.3177567E-1,-7.0386976E-1,8.9624065E-1,4.963116E-2,1.398314E0,5.695045E-1,-1.0008292E0,-8.6965173E-1,8.5381883E-1,-4.336912E-1,1.8638984E0,-6.7632186E-1,-1.3012564E-1,-4.942183E-1,-1.0421001E0,-0E0,-1.9527042E-1,3.8584322E-1,1.7108385E-2,-2.0155044E-1,-0E0,-6.0495697E-2,3.3815664E-1,-1.9994596E-1,1.733324E-1,3.7233874E-1,-2.3648989E-1,2.850417E-1,8.970274E-2,-3.4919944E-2,-2.8571355E-1,-0E0,-2.4188197E-1,-3.4777585E-2,3.7811452E-1,-1.6796646E-1,5.054246E-2,-1.1369276E-1,5.542504E-1,2.863285E-2,-2.0289184E-1,6.1922327E-2,-1.7376935E-1,1.6431864E-1,-2.3523197E-1,-1.22605324E-1,-2.7424356E-1],"categories":[],"categories_nodes":[],"categories_segments":[],"categories_sizes":[],"default_left":[0,0,0,0,0,0,0,0,0,0,0,0,0,0,0,0,0,0,0,0,0,0,0,0,0,0,0,0,0,0,0,0,0,0,0,0,0,0,0,0,0,0,0,0,0,0,0,0,0,0,0,0,0,0,0,0,0,0,0,0,0,0,0],"id":2,"left_children":[1,3,5,7,9,11,13,15,17,19,21,23,25,27,29,31,33,35,37,39,41,43,45,47,49,51,53,55,57,59,61,-1,-1,-1,-1,-1,-1,-1,-1,-1,-1,-1,-1,-1,-1,-1,-1,-1,-1,-1,-1,-1,-1,-1,-1,-1,-1,-1,-1,-1,-1,-1,-1],"loss_changes":[1.6409895E3,2.0106375E2,2.1728943E2,5.4014225E1,1.4298724E2,6.8630356E1,1.2687012E2,6.686496E1,1.8693024E1,5.589618E1,7.600449E1,9.231531E1,3.414737E1,4.1874588E1,3.4893066E1,4.937353E0,4.3533127E1,5.6954727E0,5.2918415E0,2.0890244E1,3.60177E1,3.416156E1,1.7870331E0,3.4096756E0,3.6274048E1,1.9533719E0,2.4942398E1,3.3991913E1,4.525256E1,6.734491E1,1.1380371E1,0E0,0E0,0E0,0E0,0E0,0E0,0E0,0E0,0E0,0E0,0E0,0E0,0E0,0E0,0E0,0E0,0E0,0E0,0E0,0E0,0E0,0E0,0E0,0E0,0E0,0E0,0E0,0E0,0E0,0E0,0E0,0E0],"parents":[2147483647,0,0,1,1,2,2,3,3,4,4,5,5,6,6,7,7,8,8,9,9,10,10,11,11,12,12,13,13,14,14,15,15,16,16,17,17,18,18,19,19,20,20,21,21,22,22,23,23,24,24,25,25,26,26,27,27,28,28,29,29,30,30],"right_children":[2,4,6,8,10,12,14,16,18,20,22,24,26,28,30,32,34,36,38,40,42,44,46,48,50,52,54,56,58,60,62,-1,-1,-1,-1,-1,-1,-1,-1,-1,-1,-1,-1,-1,-1,-1,-1,-1,-1,-1,-1,-1,-1,-1,-1,-1,-1,-1,-1,-1,-1,-1,-1],"split_conditions":[4.84E-1,3.3E1,6.082E1,4.08E0,3.531E1,6.023E1,5.4E-1,2.545E0,3.2629E2,1.2138E1,1.1269E2,3.412E1,2.268E1,3.4E1,1.2E0,3E-1,2.9E1,7.875E1,3.22E0,3.7E1,1.9947E1,3.16E-1,1.1776E2,5.18E-1,1.5E0,1.921E0,3.15E0,6.571E1,7.798E1,3.708E1,2.86E0,-0E0,-1.9527042E-1,3.8584322E-1,1.7108385E-2,-2.0155044E-1,-0E0,-6.0495697E-2,3.3815664E-1,-1.9994596E-1,1.733324E-1,3.7233874E-1,-2.3648989E-1,2.850417E-1,8.970274E-2,-3.4919944E-2,-2.8571355E-1,-0E0,-2.4188197E-1,-3.4777585E-2,3.7811452E-1,-1.6796646E-1,5.054246E-2,-1.1369276E-1,5.542504E-1,2.863285E-2,-2.0289184E-1,6.1922327E-2,-1.7376935E-1,1.6431864E-1,-2.3523197E-1,-1.22605324E-1,-2.7424356E-1],"split_indices":[1,0,8,11,4,8,2,12,10,3,10,6,4,0,11,13,0,8,9,0,3,1,10,1,14,13,9,8,8,10,10,0,0,0,0,0,0,0,0,0,0,0,0,0,0,0,0,0,0,0,0,0,0,0,0,0,0,0,0,0,0,0,0],"split_type":[0,0,0,0,0,0,0,0,0,0,0,0,0,0,0,0,0,0,0,0,0,0,0,0,0,0,0,0,0,0,0,0,0,0,0,0,0,0,0,0,0,0,0,0,0,0,0,0,0,0,0,0,0,0,0,0,0,0,0,0,0,0,0],"sum_hessian":[3.847276E3,1.01528094E3,2.8319949E3,2.5044235E2,7.6483856E2,1.5408818E2,2.6779067E3,1.3552727E2,1.14915085E2,4.3133276E2,3.335058E2,1.1762943E2,3.6458748E1,6.2509875E2,2.0528079E3,4.9655525E1,8.5871735E1,1.1031259E2,4.6024933E0,3.440476E1,3.96928E2,3.0264203E2,3.0863758E1,6.2221516E1,5.5407917E1,6.1579137E0,3.0300835E1,4.0419925E2,2.2089952E2,1.3753958E2,1.9152683E3,1.2173044E1,3.7482483E1,4.4254627E1,4.161711E1,9.98105E1,1.0502093E1,1.2795944E0,3.3228989E0,1.4067745E1,2.0337013E1,3.9272833E2,4.199693E0,8.5704285E1,2.1693774E2,4.49942E0,2.6364338E1,4.3520317E0,5.7869484E1,2.1664448E1,3.374347E1,5.122335E0,1.035579E0,2.7335548E0,2.756728E1,4.6635624E1,3.5756363E2,1.3176111E2,8.9138405E1,3.591229E1,1.016273E2,4.5413235E1,1.8698551E3],"tree_param":{"num_deleted":"0","num_feature":"25","num_nodes":"63","size_leaf_vector":"1"}},{"base_weights":[-3.821817E-1,5.2195793E-1,-7.5471425E-1,-3.066589E-2,7.206036E-1,-3.973375E-1,-9.5401543E-1,5.4657793E-1,-6.681688E-1,3.2774368E-1,1.0613241E0,3.1221518E-1,-5.3623676E-1,-3.033258E-1,-1.0037924E0,-3.5703436E-1,9.035723E-1,-7.230539E-1,5.2515113E-1,5.2111214E-1,-3.5728592E-1,-1.336805E-1,1.2000161E0,2.2443984E0,-8.72519E-2,-1.6169366E-1,-8.64566E-1,5.6818885E-1,-9.2164755E-1,-3.233873E-1,-1.0225863E0,3.7700385E-2,-1.994886E-1,3.0666116E-1,-8.468014E-2,1.0873954E-1,-1.985378E-1,1.7328878E-1,-0E0,5.0457414E-2,2.9464105E-1,-1.6477558E-1,1.5611139E-1,1.8268019E-1,-1.6313197E-1,-2.2416057E-1,3.2460883E-1,-1.1961604E-1,7.6803374E-1,-1.0778595E-1,3.0628932E-1,-1.7289925E-1,7.060267E-2,-4.8539527E-2,-2.3269743E-1,4.4724318E-1,-9.9892154E-2,-2.516013E-1,-6.366499E-2,1.72856E-1,-1.7145464E-1,-2.6758492E-1,-1.2088759E-1],"categories":[],"categories_nodes":[],"categories_segments":[],"categories_sizes":[],"default_left":[0,0,0,0,0,0,0,0,0,0,0,0,0,0,0,0,0,0,0,0,0,0,0,0,0,0,0,0,0,0,0,0,0,0,0,0,0,0,0,0,0,0,0,0,0,0,0,0,0,0,0,0,0,0,0,0,0,0,0,0,0,0,0],"id":3,"left_children":[1,3,5,7,9,11,13,15,17,19,21,23,25,27,29,31,33,35,37,39,41,43,45,47,49,51,53,55,57,59,61,-1,-1,-1,-1,-1,-1,-1,-1,-1,-1,-1,-1,-1,-1,-1,-1,-1,-1,-1,-1,-1,-1,-1,-1,-1,-1,-1,-1,-1,-1,-1,-1],"loss_changes":[1.138255E3,1.0871561E2,1.6836707E2,9.831769E1,9.532831E1,8.57785E1,4.790796E1,4.6505E1,9.760044E0,4.618927E1,6.5201965E1,1.1209708E2,8.800824E1,6.377111E1,1.6341919E1,9.290085E0,3.6231857E1,7.0061493E0,7.380818E-1,5.2540024E1,2.1749214E1,1.926012E1,3.868152E1,5.3663857E1,5.1691933E1,7.564928E1,6.7977905E0,5.717549E1,7.059326E-1,1.615451E1,2.6485596E0,0E0,0E0,0E0,0E0,0E0,0E0,0E0,0E0,0E0,0E0,0E0,0E0,0E0,0E0,0E0,0E0,0E0,0E0,0E0,0E0,0E0,0E0,0E0,0E0,0E0,0E0,0E0,0E0,0E0,0E0,0E0,0E0],"parents":[2147483647,0,0,1,1,2,2,3,3,4,4,5,5,6,6,7,7,8,8,9,9,10,10,11,11,12,12,13,13,14,14,15,15,16,16,17,17,18,18,19,19,20,20,21,21,22,22,23,23,24,24,25,25,26,26,27,27,28,28,29,29,30,30],"right_children":[2,4,6,8,10,12,14,16,18,20,22,24,26,28,30,32,34,36,38,40,42,44,46,48,50,52,54,56,58,60,62,-1,-1,-1,-1,-1,-1,-1,-1,-1,-1,-1,-1,-1,-1,-1,-1,-1,-1,-1,-1,-1,-1,-1,-1,-1,-1,-1,-1,-1,-1,-1,-1],"split_conditions":[3.92E-1,3.3E1,5.97E-1,3.394E0,1.853E1,6.59E1,1.2E0,2.163E0,3.5022E2,1.312E1,2.549E1,2.289E1,6.086E1,6.014E1,2.57E0,4.351E1,8.2E1,2.32E0,2.4E0,1.214E1,6.58E0,1.697E0,1.132E1,9.28E0,1.3285E1,3.2E1,4.08E-1,6E-1,5.879E1,9.687E0,3.429E1,3.7700385E-2,-1.994886E-1,3.0666116E-1,-8.468014E-2,1.0873954E-1,-1.985378E-1,1.7328878E-1,-0E0,5.0457414E-2,2.9464105E-1,-1.6477558E-1,1.5611139E-1,1.8268019E-1,-1.6313197E-1,-2.2416057E-1,3.2460883E-1,-1.1961604E-1,7.6803374E-1,-1.0778595E-1,3.0628932E-1,-1.7289925E-1,7.060267E-2,-4.8539527E-2,-2.3269743E-1,4.4724318E-1,-9.9892154E-2,-2.516013E-1,-6.366499E-2,1.72856E-1,-1.7145464E-1,-2.6758492E-1,-1.2088759E-1],"split_indices":[2,0,2,11,5,8,11,12,10,3,6,6,10,10,10,4,10,9,14,3,12,12,3,5,12,0,1,14,4,3,6,0,0,0,0,0,0,0,0,0,0,0,0,0,0,0,0,0,0,0,0,0,0,0,0,0,0,0,0,0,0,0,0],"split_type":[0,0,0,0,0,0,0,0,0,0,0,0,0,0,0,0,0,0,0,0,0,0,0,0,0,0,0,0,0,0,0,0,0,0,0,0,0,0,0,0,0,0,0,0,0,0,0,0,0,0,0,0,0,0,0,0,0,0,0,0,0,0,0],"sum_hessian":[3.3714626E3,9.829905E2,2.3884722E3,2.6003284E2,7.2295764E2,8.597676E2,1.5287047E3,1.3631642E2,1.2371642E2,3.396575E2,3.8330014E2,1.394475E2,7.2032007E2,1.1111169E2,1.417593E3,3.8207047E1,9.8109375E1,1.19995674E2,3.7207503E0,2.6610846E2,7.354905E1,3.94979E1,3.4380225E2,2.1335716E1,1.18111786E2,3.3963095E2,3.806891E2,4.5896473E1,6.521522E1,4.0531914E1,1.377061E3,1.7650517E1,2.0556528E1,8.057404E1,1.7535336E1,2.5759299E0,1.1741975E2,2.6444142E0,1.0763363E0,1.7697868E2,8.912976E1,5.839732E1,1.5151726E1,1.3737158E1,2.5760738E1,6.31061E0,3.374916E2,4.543786E0,1.679193E1,9.60211E1,2.2090685E1,1.5677972E2,1.8285124E2,1.8130798E1,3.625583E2,1.973235E1,2.6164125E1,5.8960167E1,6.255047E0,9.0390625E0,3.149285E1,1.3571747E3,1.9886387E1],"tree_param":{"num_deleted":"0","num_feature":"25","num_nodes":"63","size_leaf_vector":"1"}},{"base_weights":[-3.3876032E-1,2.4543722E-1,-8.0128926E-1,6.876204E-1,-2.9607182E-2,1.7242008E-1,-8.667348E-1,9.2523485E-1,1.0770258E-1,-3.3621743E-1,2.6183665E-1,-3.9194816E-1,6.658758E-1,-5.419444E-1,-9.5457643E-1,-6.636491E-1,9.679138E-1,-3.8915297E-1,3.5758364E-1,-4.1454613E-1,9.4528854E-1,5.3686005E-1,-4.2020586E-1,9.859158E-1,-8.0896366E-1,-2.5765872E-1,1.0808139E0,1.9624494E-1,-7.7334344E-1,-7.336936E-1,-1.0130348E0,-2.2911459E-1,3.6541436E-2,1.28439E-1,2.874833E-1,-1.5357794E-1,7.177009E-2,1.5063645E-1,-9.9233896E-2,1.2819672E-1,-1.2493558E-1,4.2501217E-1,-1.4504707E-1,2.505615E-2,3.052929E-1,-2.044164E-1,2.4321793E-2,-5.688902E-2,3.1452626E-1,-0E0,-2.2985509E-1,-2.01992E-1,1.9396557E-1,-1.3625877E-1,3.3489642E-1,-8.3156936E-2,5.443754E-1,2.2853382E-2,-2.2168384E-1,5.6785557E-2,-2.1002898E-1,-2.6486498E-1,-9.3044505E-2],"categories":[],"categories_nodes":[],"categories_segments":[],"categories_sizes":[],"default_left":[0,0,0,0,0,0,0,0,0,0,0,0,0,0,0,0,0,0,0,0,0,0,0,0,0,0,0,0,0,0,0,0,0,0,0,0,0,0,0,0,0,0,0,0,0,0,0,0,0,0,0,0,0,0,0,0,0,0,0,0,0,0,0],"id":4,"left_children":[1,3,5,7,9,11,13,15,17,19,21,23,25,27,29,31,33,35,37,39,41,43,45,47,49,51,53,55,57,59,61,-1,-1,-1,-1,-1,-1,-1,-1,-1,-1,-1,-1,-1,-1,-1,-1,-1,-1,-1,-1,-1,-1,-1,-1,-1,-1,-1,-1,-1,-1,-1,-1],"loss_changes":[8.034636E2,1.6027643E2,1.0658142E2,6.871538E1,7.300403E1,3.0824656E1,4.181836E1,2.6617004E1,1.9260323E1,4.1118156E1,7.925416E1,3.2353848E1,2.39226E1,5.897171E1,1.2259155E1,2.74787E0,2.0111542E1,7.65179E0,1.7791134E1,2.3484566E1,2.8247505E1,8.317425E1,2.346096E1,5.004607E0,2.519865E0,1.2823372E1,1.6589676E1,8.502207E1,1.8426926E1,1.992714E1,1.5785522E0,0E0,0E0,0E0,0E0,0E0,0E0,0E0,0E0,0E0,0E0,0E0,0E0,0E0,0E0,0E0,0E0,0E0,0E0,0E0,0E0,0E0,0E0,0E0,0E0,0E0,0E0,0E0,0E0,0E0,0E0,0E0,0E0],"parents":[2147483647,0,0,1,1,2,2,3,3,4,4,5,5,6,6,7,7,8,8,9,9,10,10,11,11,12,12,13,13,14,14,15,15,16,16,17,17,18,18,19,19,20,20,21,21,22,22,23,23,24,24,25,25,26,26,27,27,28,28,29,29,30,30],"right_children":[2,4,6,8,10,12,14,16,18,20,22,24,26,28,30,32,34,36,38,40,42,44,46,48,50,52,54,56,58,60,62,-1,-1,-1,-1,-1,-1,-1,-1,-1,-1,-1,-1,-1,-1,-1,-1,-1,-1,-1,-1,-1,-1,-1,-1,-1,-1,-1,-1,-1,-1,-1,-1],"split_conditions":[5.8E-1,3.6E-1,6.13E1,5.214E1,3.4E1,1.7708E1,3.957E1,1.964E1,4.809E0,2.9286E2,7.785E1,1.966E1,5.873E1,2.163E0,5.81E-1,7.428E0,2.683E0,2.022E1,3.67E0,2.36E-1,7.345E1,4.57E0,1.607E1,4.16E0,6.2E-1,3.804E1,1.8E0,1.2E0,6.798E1,6.577E1,1.26E2,-2.2911459E-1,3.6541436E-2,1.28439E-1,2.874833E-1,-1.5357794E-1,7.177009E-2,1.5063645E-1,-9.9233896E-2,1.2819672E-1,-1.2493558E-1,4.2501217E-1,-1.4504707E-1,2.505615E-2,3.052929E-1,-2.044164E-1,2.4321793E-2,-5.688902E-2,3.1452626E-1,-0E0,-2.2985509E-1,-2.01992E-1,1.9396557E-1,-1.3625877E-1,3.3489642E-1,-8.3156936E-2,5.443754E-1,2.2853382E-2,-2.2168384E-1,5.6785557E-2,-2.1002898E-1,-2.6486498E-1,-9.3044505E-2],"split_indices":[1,1,8,10,0,3,10,4,11,10,8,6,8,11,2,12,12,5,9,2,8,12,5,9,1,4,12,13,8,8,4,0,0,0,0,0,0,0,0,0,0,0,0,0,0,0,0,0,0,0,0,0,0,0,0,0,0,0,0,0,0,0,0],"split_type":[0,0,0,0,0,0,0,0,0,0,0,0,0,0,0,0,0,0,0,0,0,0,0,0,0,0,0,0,0,0,0,0,0,0,0,0,0,0,0,0,0,0,0,0,0,0,0,0,0,0,0,0,0,0,0,0,0,0,0,0,0,0,0],"sum_hessian":[2.9664216E3,1.3110548E3,1.6553668E3,5.0145068E2,8.096041E2,1.0341283E2,1.551954E3,3.5361487E2,1.478358E2,3.9511044E2,4.1449365E2,4.8103397E1,5.5309425E1,3.3693567E2,1.2150183E3,7.6114225E0,3.4600345E2,4.8148052E1,9.9687744E1,3.7495053E2,2.0159897E1,2.9643774E2,1.1805593E2,9.7882395E0,3.831516E1,1.7184114E1,3.8125313E1,8.002327E1,2.5691238E2,2.6598483E2,9.4903357E2,6.216265E0,1.3951573E0,8.237167E1,2.6363177E2,3.7830376E1,1.0317677E1,7.77845E1,2.190325E1,2.3359707E1,3.5159082E2,1.3839382E1,6.3205156E0,1.781357E2,1.1830203E2,6.842502E1,4.9630913E1,1.1957145E0,8.5925255E0,3.5779347E0,3.4737225E1,1.2174761E1,5.0093527E0,3.4724565E0,3.4652855E1,6.499314E1,1.5030125E1,2.1094133E1,2.3581827E2,1.8229372E1,2.4775545E2,9.3819934E2,1.0834191E1],"tree_param":{"num_deleted":"0","num_feature":"25","num_nodes":"63","size_leaf_vector":"1"}},{"base_weights":[-2.9663444E-1,1.873091E-1,-7.4479884E-1,3.835831E-1,-2.4238643E-1,-1.4521398E-1,-8.4927166E-1,6.7277765E-1,1.3170025E-1,-6.670682E-2,-8.250689E-1,8.9800817E-1,-3.9684066E-1,-5.312403E-1,-9.389451E-1,8.7589544E-1,3.6270005E-1,1.3688847E0,4.519864E-2,-4.3752253E-1,3.14021E-1,-9.403674E-1,-3.936482E-1,-6.6562134E-1,1.8702285E0,-7.7693766E-1,2.7131027E-1,1.6429408E-1,-7.89652E-1,-9.965602E-1,-6.701271E-1,-1.0346191E-1,2.5051394E-1,2.3005947E-1,3.181E-2,-8.144854E-2,4.9269938E-1,3.4083273E-2,-1.6978353E-1,9.9272355E-2,-1.735756E-1,2.0460388E-1,-1.33917285E-2,-1.1943707E-1,-2.6649424E-1,4.0322058E-2,-1.9116601E-1,-1.9987258E-1,2.7386734E-2,-4.624368E-2,5.912577E-1,7.736523E-2,-2.2894816E-1,1.5757217E-1,-2.0145072E-1,-1.4642729E-1,2.309576E-1,-2.3563696E-1,-6.076934E-2,-0E0,-2.6003945E-1,7.3383846E-3,-2.0624551E-1],"categories":[],"categories_nodes":[],"categories_segments":[],"categories_sizes":[],"default_left":[0,0,0,0,0,0,0,0,0,0,0,0,0,0,0,0,0,0,0,0,0,0,0,0,0,0,0,0,0,0,0,0,0,0,0,0,0,0,0,0,0,0,0,0,0,0,0,0,0,0,0,0,0,0,0,0,0,0,0,0,0,0,0],"id":5,"left_children":[1,3,5,7,9,11,13,15,17,19,21,23,25,27,29,31,33,35,37,39,41,43,45,47,49,51,53,55,57,59,61,-1,-1,-1,-1,-1,-1,-1,-1,-1,-1,-1,-1,-1,-1,-1,-1,-1,-1,-1,-1,-1,-1,-1,-1,-1,-1,-1,-1,-1,-1,-1,-1],"loss_changes":[5.735597E2,1.0767943E2,8.5039795E1,6.305159E1,4.032855E1,5.5749626E1,3.0810303E1,2.3822098E1,4.9710842E1,4.4585285E1,2.6008644E0,6.762132E1,4.4382774E1,4.8583107E1,1.0842712E1,2.8600708E1,2.0142273E1,2.9791908E1,2.6798227E1,3.1227913E1,2.7354664E1,4.163475E-1,5.6158214E0,2.061019E0,2.4408646E1,1.3489548E1,2.3995394E1,4.1120586E1,1.1339867E1,2.1523438E0,1.5242691E1,0E0,0E0,0E0,0E0,0E0,0E0,0E0,0E0,0E0,0E0,0E0,0E0,0E0,0E0,0E0,0E0,0E0,0E0,0E0,0E0,0E0,0E0,0E0,0E0,0E0,0E0,0E0,0E0,0E0,0E0,0E0,0E0],"parents":[2147483647,0,0,1,1,2,2,3,3,4,4,5,5,6,6,7,7,8,8,9,9,10,10,11,11,12,12,13,13,14,14,15,15,16,16,17,17,18,18,19,19,20,20,21,21,22,22,23,23,24,24,25,25,26,26,27,27,28,28,29,29,30,30],"right_children":[2,4,6,8,10,12,14,16,18,20,22,24,26,28,30,32,34,36,38,40,42,44,46,48,50,52,54,56,58,60,62,-1,-1,-1,-1,-1,-1,-1,-1,-1,-1,-1,-1,-1,-1,-1,-1,-1,-1,-1,-1,-1,-1,-1,-1,-1,-1,-1,-1,-1,-1,-1,-1],"split_conditions":[5.8E-1,6.771E1,6.81E1,3.64E-1,3.76E0,2.301E1,3.9E1,3.602E1,7.192E0,3.2E0,4.66E0,2.293E1,1.7979E1,2.163E0,3.6E1,2.121E1,2.012E0,2.021E1,1.26E2,2.402E1,2.343E1,1.697E0,4.92E0,2.012E0,1.53E0,4.52E-1,6.064E1,1E0,3.6E1,1.4E-1,6.029E1,-1.0346191E-1,2.5051394E-1,2.3005947E-1,3.181E-2,-8.144854E-2,4.9269938E-1,3.4083273E-2,-1.6978353E-1,9.9272355E-2,-1.735756E-1,2.0460388E-1,-1.33917285E-2,-1.1943707E-1,-2.6649424E-1,4.0322058E-2,-1.9116601E-1,-1.9987258E-1,2.7386734E-2,-4.624368E-2,5.912577E-1,7.736523E-2,-2.2894816E-1,1.5757217E-1,-2.0145072E-1,-1.4642729E-1,2.309576E-1,-2.3563696E-1,-6.076934E-2,-0E0,-2.6003945E-1,7.3383846E-3,-2.0624551E-1],"split_indices":[1,10,8,1,9,6,10,4,3,9,9,4,3,11,0,4,11,6,4,4,6,12,9,13,12,2,8,18,0,2,10,0,0,0,0,0,0,0,0,0,0,0,0,0,0,0,0,0,0,0,0,0,0,0,0,0,0,0,0,0,0,0,0],"split_type":[0,0,0,0,0,0,0,0,0,0,0,0,0,0,0,0,0,0,0,0,0,0,0,0,0,0,0,0,0,0,0,0,0,0,0,0,0,0,0,0,0,0,0,0,0,0,0,0,0,0,0,0,0,0,0,0,0,0,0,0,0,0,0],"sum_hessian":[2.6374817E3,1.268564E3,1.3689178E3,8.7185974E2,3.9670416E2,2.0508058E2,1.1638373E3,4.022223E2,4.6963748E2,3.084614E2,8.8242775E1,3.771978E1,1.6736081E2,2.6253925E2,9.0129803E2,2.381934E2,1.6402888E2,2.6921831E1,4.4271564E2,1.5666565E2,1.5179575E2,6.546038E1,2.278239E1,1.4687397E1,2.3032381E1,1.0678917E2,6.057164E1,7.093968E1,1.9159956E2,7.3288544E2,1.6841263E2,1.4164616E1,2.2402878E2,4.809096E1,1.1593793E2,6.524998E0,2.0396833E1,3.973896E2,4.532606E1,3.3365158E1,1.2330048E2,6.5013954E1,8.678179E1,1.4042641E1,5.141774E1,8.9128065E0,1.3869584E1,1.35355425E1,1.1518542E0,3.912151E0,1.9120232E1,8.393021E0,9.839615E1,4.736587E1,1.320577E1,3.542833E1,3.5511353E1,1.5580353E2,3.579604E1,3.1275597E0,7.297579E2,2.5037764E1,1.4337486E2],"tree_param":{"num_deleted":"0","num_feature":"25","num_nodes":"63","size_leaf_vector":"1"}},{"base_weights":[-2.5795785E-1,1.05332814E-1,-7.701003E-1,3.2282463E-1,-1.7095314E-1,-1.3816293E-1,-8.600607E-1,3.6769557E-1,-6.0283256E-1,1.3154448E-2,-4.2401814E-1,-8.2915485E-1,4.2399627E-1,-1.5508628E-3,-9.0370643E-1,1.0609226E-1,5.3463453E-1,-0E0,-2.7483916E-1,6.378889E-1,-1.4798215E-1,2.1638176E-1,-5.801438E-1,-8.8380355E-1,4.5457806E-2,9.772914E-1,-6.932644E-1,5.335143E-1,-6.9015944E-1,-6.5722346E-1,-9.78315E-1,-5.693525E-2,8.400417E-2,6.435466E-2,2.3855983E-1,2.2359148E-1,-1.5654431E-1,3.466585E-1,-1.0066627E-1,1.5967922E-1,-8.2877465E-2,-2.402821E-2,3.6150578E-1,-2.0257728E-1,-4.4186223E-2,-0E0,-2.3261988E-1,4.4057295E-1,-8.728197E-3,-2.1407628E-1,2.5503922E-2,3.578327E-1,-8.6023204E-2,-1.9949093E-1,2.449579E-2,-2.0378277E-1,-6.39073E-2,-2.550924E-1,-4.2836715E-2],"categories":[],"categories_nodes":[],"categories_segments":[],"categories_sizes":[],"default_left":[0,0,0,0,0,0,0,0,0,0,0,0,0,0,0,0,0,0,0,0,0,0,0,0,0,0,0,0,0,0,0,0,0,0,0,0,0,0,0,0,0,0,0,0,0,0,0,0,0,0,0,0,0,0,0,0,0,0,0],"id":6,"left_children":[1,3,5,7,9,11,13,15,17,19,21,23,25,27,29,31,33,35,-1,37,39,41,43,45,-1,47,49,51,53,55,57,-1,-1,-1,-1,-1,-1,-1,-1,-1,-1,-1,-1,-1,-1,-1,-1,-1,-1,-1,-1,-1,-1,-1,-1,-1,-1,-1,-1],"loss_changes":[4.4364185E2,8.412515E1,5.531604E1,3.3182747E1,2.8922735E1,5.1202354E1,3.1935608E1,3.2215134E1,9.860634E0,3.669523E1,2.6681278E1,4.1356926E0,4.7370987E1,1.8273153E1,1.2050293E1,2.128709E1,4.8702225E1,1.1920494E1,0E0,5.564708E1,3.7949066E1,2.031682E1,1.6296738E1,2.7028656E-1,0E0,3.7485027E1,3.2998343E0,2.2066368E1,1.9201059E0,9.393753E0,2.8393555E-1,0E0,0E0,0E0,0E0,0E0,0E0,0E0,0E0,0E0,0E0,0E0,0E0,0E0,0E0,0E0,0E0,0E0,0E0,0E0,0E0,0E0,0E0,0E0,0E0,0E0,0E0,0E0,0E0],"parents":[2147483647,0,0,1,1,2,2,3,3,4,4,5,5,6,6,7,7,8,8,9,9,10,10,11,11,12,12,13,13,14,14,15,15,16,16,17,17,19,19,20,20,21,21,22,22,23,23,25,25,26,26,27,27,28,28,29,29,30,30],"right_children":[2,4,6,8,10,12,14,16,18,20,22,24,26,28,30,32,34,36,-1,38,40,42,44,46,-1,48,50,52,54,56,58,-1,-1,-1,-1,-1,-1,-1,-1,-1,-1,-1,-1,-1,-1,-1,-1,-1,-1,-1,-1,-1,-1,-1,-1,-1,-1,-1,-1],"split_conditions":[5.49E-1,3.61E-1,1.5E0,1.3286E2,6.786E1,2.563E0,3.86E0,3.4E1,2.34E1,9.581E0,6.36E1,5.24E0,7.204E1,4.211E0,6.37E-1,3.195E1,1.854E1,3.35E1,-2.7483916E-1,9.4E-1,1.53E0,2.66E2,1.75E1,4.76E-1,4.5457806E-2,7.518E1,5.869E1,5.1E-1,2.83E0,3.5E1,1E0,-5.693525E-2,8.400417E-2,6.435466E-2,2.3855983E-1,2.2359148E-1,-1.5654431E-1,3.466585E-1,-1.0066627E-1,1.5967922E-1,-8.2877465E-2,-2.402821E-2,3.6150578E-1,-2.0257728E-1,-4.4186223E-2,-0E0,-2.3261988E-1,4.4057295E-1,-8.728197E-3,-2.1407628E-1,2.5503922E-2,3.578327E-1,-8.6023204E-2,-1.9949093E-1,2.449579E-2,-2.0378277E-1,-6.39073E-2,-2.550924E-1,-4.2836715E-2],"split_indices":[2,2,11,10,10,12,10,0,6,3,8,9,10,12,2,4,5,4,0,7,11,10,5,1,0,8,4,7,13,0,23,0,0,0,0,0,0,0,0,0,0,0,0,0,0,0,0,0,0,0,0,0,0,0,0,0,0,0,0],"split_type":[0,0,0,0,0,0,0,0,0,0,0,0,0,0,0,0,0,0,0,0,0,0,0,0,0,0,0,0,0,0,0,0,0,0,0,0,0,0,0,0,0,0,0,0,0,0,0,0,0,0,0,0,0,0,0,0,0,0,0],"sum_hessian":[2.3776335E3,1.3920092E3,9.856244E2,7.795606E2,6.124486E2,1.2462368E2,8.6100073E2,7.460461E2,3.351448E1,3.553036E2,2.57145E2,5.5559032E1,6.906465E1,4.2384315E1,8.186164E2,2.9401947E2,4.5202664E2,1.6151894E1,1.7362587E1,7.136512E1,2.8393848E2,4.9510063E1,2.0763492E2,5.3560654E1,1.998381E0,4.67827E1,2.228195E1,2.3886295E1,1.849802E1,1.9974739E2,6.18869E2,1.1676527E2,1.772542E2,2.623638E2,1.8966286E2,5.856221E0,1.0295672E1,4.2183105E1,2.9182009E1,4.9778046E1,2.3416043E2,4.1415386E1,8.094678E0,1.368686E2,7.076631E1,1.0427358E0,5.2517918E1,2.6270782E1,2.0511917E1,1.9556866E1,2.725084E0,1.1337682E1,1.2548614E1,1.7492096E1,1.005924E0,1.4940643E2,5.034095E1,6.154082E2,3.4608338E0],"tree_param":{"num_deleted":"0","num_feature":"25","num_nodes":"59","size_leaf_vector":"1"}},{"base_weights":[-2.2091682E-1,7.324438E-2,-7.243689E-1,3.9933246E-1,-6.448676E-2,-1.3573614E-1,-8.1982E-1,5.140399E-2,5.446859E-1,-2.908726E-1,1.0029013E-1,-7.7049035E-1,2.950904E-1,-0E0,-8.6347914E-1,2.5180218E-1,-9.154918E-1,6.614807E-1,-1.8034384E-1,1.1597259E-1,-6.403463E-1,-4.2320412E-1,2.3464254E-1,-1.19067945E-1,-8.9589226E-1,6.153967E-1,-2.0835297E-1,7.887907E-1,-3.6583793E-1,-5.829208E-1,-9.5018905E-1,-3.201463E-3,1.5455812E-1,-2.6293457E-1,-4.0353097E-2,-1.3964923E-1,1.8369403E-1,2.2457434E-2,-2.1795891E-1,2.6730132E-1,-4.0342182E-2,-6.64723E-3,-1.9536881E-1,-1.629522E-1,6.966969E-2,1.2983505E-1,-1.8335575E-2,8.194117E-2,-1.526456E-1,-0E0,-2.3715837E-1,2.651977E-1,-7.8928E-2,3.601515E-1,-8.761356E-2,-1.6101289E-1,2.0781985E-1,-1.6928968E-1,5.9710626E-2,-1.7683053E-1,-2.5376227E-1],"categories":[],"categories_nodes":[],"categories_segments":[],"categories_sizes":[],"default_left":[0,0,0,0,0,0,0,0,0,0,0,0,0,0,0,0,0,0,0,0,0,0,0,0,0,0,0,0,0,0,0,0,0,0,0,0,0,0,0,0,0,0,0,0,0,0,0,0,0,0,0,0,0,0,0,0,0,0,0,0,0],"id":7,"left_children":[1,3,5,7,9,11,13,15,17,19,21,23,25,27,29,31,33,35,37,39,41,43,45,47,49,51,-1,53,55,57,59,-1,-1,-1,-1,-1,-1,-1,-1,-1,-1,-1,-1,-1,-1,-1,-1,-1,-1,-1,-1,-1,-1,-1,-1,-1,-1,-1,-1,-1,-1],"loss_changes":[3.224749E2,6.200273E1,4.423468E1,2.0329018E1,3.6324776E1,3.3010586E1,2.454837E1,2.481853E1,2.5018188E1,5.8837498E1,3.976856E1,3.0986938E0,2.6819736E1,1.2064596E1,1.321167E1,1.0021841E1,4.6208763E-1,1.4859192E1,8.011921E0,4.843266E1,1.4691757E1,1.6977587E1,3.6698666E1,3.3329341E0,2.745762E-1,2.2945457E1,0E0,1.1013311E1,1.0155487E1,9.870964E0,2.8567505E-1,0E0,0E0,0E0,0E0,0E0,0E0,0E0,0E0,0E0,0E0,0E0,0E0,0E0,0E0,0E0,0E0,0E0,0E0,0E0,0E0,0E0,0E0,0E0,0E0,0E0,0E0,0E0,0E0,0E0,0E0],"parents":[2147483647,0,0,1,1,2,2,3,3,4,4,5,5,6,6,7,7,8,8,9,9,10,10,11,11,12,12,13,13,14,14,15,15,16,16,17,17,18,18,19,19,20,20,21,21,22,22,23,23,24,24,25,25,27,27,28,28,29,29,30,30],"right_children":[2,4,6,8,10,12,14,16,18,20,22,24,26,28,30,32,34,36,38,40,42,44,46,48,50,52,-1,54,56,58,60,-1,-1,-1,-1,-1,-1,-1,-1,-1,-1,-1,-1,-1,-1,-1,-1,-1,-1,-1,-1,-1,-1,-1,-1,-1,-1,-1,-1,-1,-1],"split_conditions":[5.58E-1,2.62E-1,1.5E0,2.716E0,3.3E1,2.563E0,3E0,6.06E1,8.3E1,1.5E-1,4.7E-1,1.916E1,9.586E1,9.652E0,6.39E-1,1.273E0,4.53E0,1.877E1,3.67E0,2.295E1,1.342E0,4.989E1,1.52E0,7.26E-1,4.81E-1,1.57E0,-2.0835297E-1,5.1E-1,2.024E1,3.428E1,6.62E-1,-3.201463E-3,1.5455812E-1,-2.6293457E-1,-4.0353097E-2,-1.3964923E-1,1.8369403E-1,2.2457434E-2,-2.1795891E-1,2.6730132E-1,-4.0342182E-2,-6.64723E-3,-1.9536881E-1,-1.629522E-1,6.966969E-2,1.2983505E-1,-1.8335575E-2,8.194117E-2,-1.526456E-1,-0E0,-2.3715837E-1,2.651977E-1,-7.8928E-2,3.601515E-1,-8.761356E-2,-1.6101289E-1,2.0781985E-1,-1.6928968E-1,5.9710626E-2,-1.7683053E-1,-2.5376227E-1],"split_indices":[2,2,11,12,0,12,10,4,10,7,7,10,10,3,2,14,9,4,9,6,11,4,7,1,1,7,0,7,5,6,1,0,0,0,0,0,0,0,0,0,0,0,0,0,0,0,0,0,0,0,0,0,0,0,0,0,0,0,0,0,0],"split_type":[0,0,0,0,0,0,0,0,0,0,0,0,0,0,0,0,0,0,0,0,0,0,0,0,0,0,0,0,0,0,0,0,0,0,0,0,0,0,0,0,0,0,0,0,0,0,0,0,0,0,0,0,0,0,0,0,0,0,0,0,0],"sum_hessian":[2.1705193E3,1.3712888E3,7.9923047E2,4.063082E2,9.649806E2,1.1343143E2,6.857991E2,1.2213492E2,2.8417328E2,4.06647E2,5.5833356E2,4.52152E1,6.8216225E1,3.5017918E1,6.507811E2,1.03739555E2,1.8395357E1,2.4560521E2,3.856806E1,1.8831961E2,2.183274E2,1.1173194E2,4.4660162E2,9.044151E0,3.6171047E1,5.4334915E1,1.388131E1,9.689275E0,2.5328644E1,1.6138855E2,4.8939258E2,5.9664963E1,4.4074596E1,1.472669E1,3.668666E0,7.1070457E0,2.3849817E2,2.9066086E1,9.501977E0,4.1336094E1,1.4698352E2,3.4756863E1,1.8357053E2,8.712492E1,2.460702E1,2.3883159E2,2.0777005E2,4.730351E0,4.3138E0,1.0713383E0,3.509971E1,3.783609E1,1.6498825E1,6.0968556E0,3.5924194E0,2.2502716E1,2.8259284E0,1.5010239E2,1.1286152E1,5.274487E1,4.366477E2],"tree_param":{"num_deleted":"0","num_feature":"25","num_nodes":"61","size_leaf_vector":"1"}},{"base_weights":[-1.8974109E-1,3.0973785E-2,-7.269077E-1,1.6562831E-1,-2.3091452E-1,-1.4299507E-1,-8.263189E-1,-8.086394E-1,2.1461189E-1,-5.2024347E-1,4.140462E-2,-8.924393E-1,1.9111916E-1,-2.906241E-1,-8.8270736E-1,-0E0,-9.2049927E-1,-3.662519E-1,3.0950186E-1,4.4829634E-1,-5.999811E-1,1.142831E0,-1.1046344E-1,-2.4540402E-1,1.2812006E-3,7.6994294E-1,-2.9964286E-1,-7.544111E-1,1.32021E-1,-2.5588697E-1,-9.139837E-1,-1.2925957E-1,1.9272065E-1,4.3147523E-2,-2.5698158E-1,-3.0407067E-2,-2.4107605E-1,2.566518E-2,1.3853857E-1,-1.0688011E-1,2.8396156E-1,-1.993681E-1,-5.8885E-2,4.365224E-1,-1.7389734E-1,-6.664685E-2,1.8262012E-1,2.8175956E-1,-9.3337566E-2,1.6586918E-1,-1.6847108E-1,-2.1211478E-1,-0E0,-1.5745392E-1,1.4495666E-1,-1.2754333E-1,1.3488925E-1,-2.500371E-1,-1.6664983E-1],"categories":[],"categories_nodes":[],"categories_segments":[],"categories_sizes":[],"default_left":[0,0,0,0,0,0,0,0,0,0,0,0,0,0,0,0,0,0,0,0,0,0,0,0,0,0,0,0,0,0,0,0,0,0,0,0,0,0,0,0,0,0,0,0,0,0,0,0,0,0,0,0,0,0,0,0,0,0,0],"id":8,"left_children":[1,3,5,7,9,11,13,15,17,19,21,23,25,27,29,31,33,35,37,39,41,43,45,-1,-1,47,49,51,53,55,57,-1,-1,-1,-1,-1,-1,-1,-1,-1,-1,-1,-1,-1,-1,-1,-1,-1,-1,-1,-1,-1,-1,-1,-1,-1,-1,-1,-1],"loss_changes":[2.3773622E2,5.0225033E1,3.2985077E1,4.5266167E1,3.835904E1,2.3454681E1,1.3538422E1,4.271574E0,4.9984207E1,1.918655E1,4.2958588E1,1.8144588E0,1.939033E1,1.1132425E1,7.367737E0,4.5810013E0,3.9380493E0,1.6896454E1,3.6051407E1,1.2658361E1,1.2562157E1,3.4673367E1,2.6902786E1,0E0,0E0,1.2733929E1,1.3537486E1,1.4781551E0,1.0688939E1,5.763908E0,2.5630798E0,0E0,0E0,0E0,0E0,0E0,0E0,0E0,0E0,0E0,0E0,0E0,0E0,0E0,0E0,0E0,0E0,0E0,0E0,0E0,0E0,0E0,0E0,0E0,0E0,0E0,0E0,0E0,0E0],"parents":[2147483647,0,0,1,1,2,2,3,3,4,4,5,5,6,6,7,7,8,8,9,9,10,10,11,11,12,12,13,13,14,14,15,15,16,16,17,17,18,18,19,19,20,20,21,21,22,22,25,25,26,26,27,27,28,28,29,29,30,30],"right_children":[2,4,6,8,10,12,14,16,18,20,22,24,26,28,30,32,34,36,38,40,42,44,46,-1,-1,48,50,52,54,56,58,-1,-1,-1,-1,-1,-1,-1,-1,-1,-1,-1,-1,-1,-1,-1,-1,-1,-1,-1,-1,-1,-1,-1,-1,-1,-1,-1,-1],"split_conditions":[5.96E-1,6.786E1,1.342E0,2.094E1,1.749E1,3.16E0,6.08E-1,5.853E1,1.5E0,6.356E1,2.349E1,3.379E1,6E-1,3.3E1,6.078E1,3.5E0,6.71E-1,5.825E1,1.082E0,2.05E2,3.7E1,1.45E0,2.121E0,-2.4540402E-1,1.2812006E-3,6.543E1,1.7E-1,9.005E0,3.5E-1,6.048E1,3.6E1,-1.2925957E-1,1.9272065E-1,4.3147523E-2,-2.5698158E-1,-3.0407067E-2,-2.4107605E-1,2.566518E-2,1.3853857E-1,-1.0688011E-1,2.8396156E-1,-1.993681E-1,-5.8885E-2,4.365224E-1,-1.7389734E-1,-6.664685E-2,1.8262012E-1,2.8175956E-1,-9.3337566E-2,1.6586918E-1,-1.6847108E-1,-2.1211478E-1,-0E0,-1.5745392E-1,1.4495666E-1,-1.2754333E-1,1.3488925E-1,-2.500371E-1,-1.6664983E-1],"split_indices":[2,10,11,4,5,9,1,8,12,8,6,6,14,0,8,9,12,4,14,10,0,7,14,0,0,10,7,12,7,8,0,0,0,0,0,0,0,0,0,0,0,0,0,0,0,0,0,0,0,0,0,0,0,0,0,0,0,0,0],"split_type":[0,0,0,0,0,0,0,0,0,0,0,0,0,0,0,0,0,0,0,0,0,0,0,0,0,0,0,0,0,0,0,0,0,0,0,0,0,0,0,0,0,0,0,0,0,0,0,0,0,0,0,0,0,0,0,0,0,0,0],"sum_hessian":[1.998087E3,1.4178698E3,5.8021716E2,9.385126E2,4.7935724E2,8.63844E1,4.938328E2,4.184007E1,8.966725E2,2.3176508E2,2.4759216E2,2.5294546E1,6.108985E1,4.99271E1,4.4390567E2,5.3086977E0,3.653137E1,1.2376618E2,7.729063E2,1.5921787E1,2.1584329E2,2.7633547E1,2.1995862E2,2.427911E1,1.0154374E0,2.7583992E1,3.350586E1,2.3059029E1,2.6868073E1,2.3383854E1,4.2052182E2,3.7178938E0,1.5908041E0,1.4180825E0,3.511329E1,8.923131E1,3.453487E1,4.0137238E2,3.7153394E2,7.02897E0,8.8928175E0,1.4573042E2,7.011288E1,2.1734407E1,5.899139E0,1.8904475E2,3.091385E1,2.2041492E1,5.542501E0,7.8987026E0,2.5607157E1,2.1431713E1,1.627315E0,8.857388E0,1.8010685E1,1.9428E1,3.955853E0,3.4890765E2,7.161418E1],"tree_param":{"num_deleted":"0","num_feature":"25","num_nodes":"59","size_leaf_vector":"1"}},{"base_weights":[-1.6052116E-1,1.1236662E-2,-7.0532596E-1,2.8792876E-1,-8.2738064E-2,-1.6218276E-1,-8.252061E-1,-6.173568E-2,4.4559097E-1,-0E0,-4.338948E-1,-7.3326963E-1,1.7489572E-1,-0E0,-8.7283796E-1,-2.0544259E-1,8.8084304E-1,-5.277112E-1,5.337643E-1,-8.947269E-2,3.757746E-1,-4.9214962E-1,1.3077435E0,-0E0,-8.5485625E-1,-7.0151746E-1,4.9743322E-1,-3.401333E-1,9.379451E-1,-9.310412E-1,-5.861994E-1,2.3998106E-3,-2.1049719E-1,2.988685E-1,-5.581782E-2,-2.3250197E-1,9.742385E-2,1.4902656E-1,-2.0990047E-1,1.8119086E-1,-3.451936E-2,4.412814E-1,2.2317935E-2,-1.638014E-1,-4.4540964E-2,-0E0,4.0644452E-1,8.685572E-2,-9.959172E-2,-2.2716099E-1,-0E0,-2.0350516E-1,1.7762855E-3,2.3425218E-1,-9.643653E-2,6.59558E-2,-1.9273654E-1,-5.5336192E-2,3.812962E-1,-9.568624E-2,-2.490286E-1,-2.9672882E-2,-1.9327776E-1],"categories":[],"categories_nodes":[],"categories_segments":[],"categories_sizes":[],"default_left":[0,0,0,0,0,0,0,0,0,0,0,0,0,0,0,0,0,0,0,0,0,0,0,0,0,0,0,0,0,0,0,0,0,0,0,0,0,0,0,0,0,0,0,0,0,0,0,0,0,0,0,0,0,0,0,0,0,0,0,0,0,0,0],"id":9,"left_children":[1,3,5,7,9,11,13,15,17,19,21,23,25,27,29,31,33,35,37,39,41,43,45,47,49,51,53,55,57,59,61,-1,-1,-1,-1,-1,-1,-1,-1,-1,-1,-1,-1,-1,-1,-1,-1,-1,-1,-1,-1,-1,-1,-1,-1,-1,-1,-1,-1,-1,-1,-1,-1],"loss_changes":[1.7525397E2,3.720408E1,2.8254776E1,2.0303799E1,3.0850254E1,1.7329716E1,1.4349426E1,1.5862132E1,2.2585255E1,2.9157963E1,2.2396149E1,2.7633667E0,1.7092611E1,8.595205E0,3.1028748E0,1.37871E1,5.86493E0,8.772993E0,1.38161545E1,2.39354E1,6.2469116E1,8.015423E0,2.7462044E0,1.5469913E0,1.3208771E-1,1.340487E0,1.6772346E1,5.6328917E0,6.073594E0,2.3246002E0,4.415617E0,0E0,0E0,0E0,0E0,0E0,0E0,0E0,0E0,0E0,0E0,0E0,0E0,0E0,0E0,0E0,0E0,0E0,0E0,0E0,0E0,0E0,0E0,0E0,0E0,0E0,0E0,0E0,0E0,0E0,0E0,0E0,0E0],"parents":[2147483647,0,0,1,1,2,2,3,3,4,4,5,5,6,6,7,7,8,8,9,9,10,10,11,11,12,12,13,13,14,14,15,15,16,16,17,17,18,18,19,19,20,20,21,21,22,22,23,23,24,24,25,25,26,26,27,27,28,28,29,29,30,30],"right_children":[2,4,6,8,10,12,14,16,18,20,22,24,26,28,30,32,34,36,38,40,42,44,46,48,50,52,54,56,58,60,62,-1,-1,-1,-1,-1,-1,-1,-1,-1,-1,-1,-1,-1,-1,-1,-1,-1,-1,-1,-1,-1,-1,-1,-1,-1,-1,-1,-1,-1,-1,-1,-1],"split_conditions":[6.17E-1,3.44E-1,1.53E0,2.503E1,7.891E1,2.563E0,3.02E0,5.21E0,2.18E1,1.237E0,2.302E1,1.586E1,3.16E0,1.5993E1,3.6E1,7.737E1,2.141E1,1.1541E1,2.154E1,6.88E0,2.1E0,2.362E1,3.71E0,7.25E-1,5.28E0,2.02E1,1.57E0,7.215E1,3.3E1,6.083E1,6.72E-1,2.3998106E-3,-2.1049719E-1,2.988685E-1,-5.581782E-2,-2.3250197E-1,9.742385E-2,1.4902656E-1,-2.0990047E-1,1.8119086E-1,-3.451936E-2,4.412814E-1,2.2317935E-2,-1.638014E-1,-4.4540964E-2,-0E0,4.0644452E-1,8.685572E-2,-9.959172E-2,-2.2716099E-1,-0E0,-2.0350516E-1,1.7762855E-3,2.3425218E-1,-9.643653E-2,6.59558E-2,-1.9273654E-1,-5.5336192E-2,3.812962E-1,-9.568624E-2,-2.490286E-1,-2.9672882E-2,-1.9327776E-1],"split_indices":[2,1,11,6,8,12,10,7,4,13,3,10,9,11,0,8,6,11,5,3,11,6,9,1,9,5,7,8,0,8,1,0,0,0,0,0,0,0,0,0,0,0,0,0,0,0,0,0,0,0,0,0,0,0,0,0,0,0,0,0,0,0,0],"split_type":[0,0,0,0,0,0,0,0,0,0,0,0,0,0,0,0,0,0,0,0,0,0,0,0,0,0,0,0,0,0,0,0,0,0,0,0,0,0,0,0,0,0,0,0,0,0,0,0,0,0,0,0,0,0,0,0,0,0,0,0,0,0,0],"sum_hessian":[1.8653768E3,1.4201603E3,4.452166E2,3.595691E2,1.0605912E3,8.274195E1,3.6247464E2,1.1141974E2,2.4814935E2,8.6153284E2,1.9905832E2,2.973452E1,5.3007427E1,2.0018446E1,3.424562E2,9.951513E1,1.1904613E1,1.869264E1,2.2945671E2,6.983298E2,1.6320302E2,1.9532315E2,3.7351613E0,5.0002084E0,2.4734312E1,1.2736514E1,4.0270912E1,1.6359987E1,3.6584592E0,2.766653E2,6.57909E1,7.535773E1,2.4157396E1,9.788266E0,2.1163466E0,1.3709975E1,4.982665E0,2.252145E2,4.2422304E0,3.308119E1,6.652486E2,2.5997889E1,1.3720514E2,1.3317168E2,6.2151485E1,1.0480472E0,2.6871142E0,2.5842285E0,2.4159796E0,2.3702822E1,1.0314914E0,1.1730355E1,1.006159E0,2.7797258E1,1.2473656E1,6.6124444E0,9.747542E0,1.5118295E0,2.1466296E0,1.5744274E1,2.6092102E2,1.8737165E1,4.7053738E1],"tree_param":{"num_deleted":"0","num_feature":"25","num_nodes":"63","size_leaf_vector":"1"}},{"base_weights":[-1.3284731E-1,1.8436795E-2,-6.431535E-1,-1.8778342E-1,1.3554533E-1,-6.994624E-1,3.084085E-1,1.7832637E-1,-5.8726937E-1,4.3722844E-1,-1.699253E-2,-7.496341E-1,2.3136754E-1,-1.5739927E-1,7.080313E-1,5.7250255E-1,-2.8692943E-1,-8.098077E-3,-7.099121E-1,-2.9636297E-1,5.8602864E-1,-3.2662672E-1,1.1882893E-1,-8.1431407E-1,-3.8543767E-1,-5.9438086E-1,8.250373E-1,1.0208007E0,-1.7429985E-1,-6.431189E-2,2.4050824E-1,1.8971084E-1,-1.6905779E-1,-9.1573395E-2,2.3088142E-1,-1.905948E-1,1.5072447E-1,-1.948074E-1,3.5283525E-2,-3.2516677E-2,1.7740664E-1,-1.9250648E-2,-2.7550608E-1,6.7550994E-2,-1.1075947E-1,-2.3144975E-1,-1.00956656E-1,2.1033102E-1,-1.8182392E-1,-1.6840316E-1,-0E0,3.8347727E-1,-9.9254206E-2,2.7557254E-1,-0E0,3.5334423E-2,-1.03368215E-1],"categories":[],"categories_nodes":[],"categories_segments":[],"categories_sizes":[],"default_left":[0,0,0,0,0,0,0,0,0,0,0,0,0,0,0,0,0,0,0,0,0,0,0,0,0,0,0,0,0,0,0,0,0,0,0,0,0,0,0,0,0,0,0,0,0,0,0,0,0,0,0,0,0,0,0,0,0],"id":10,"left_children":[1,3,5,7,9,11,13,15,17,19,21,23,25,-1,27,29,31,33,35,37,39,41,43,45,47,49,51,53,55,-1,-1,-1,-1,-1,-1,-1,-1,-1,-1,-1,-1,-1,-1,-1,-1,-1,-1,-1,-1,-1,-1,-1,-1,-1,-1,-1,-1],"loss_changes":[1.3642296E2,3.2958847E1,2.2591293E1,7.27165E1,4.0380333E1,1.8747543E1,1.0497368E1,4.8294502E1,1.648066E1,3.2865982E1,2.4701761E1,6.891144E0,1.2492534E1,0E0,6.2997875E0,4.223618E1,4.6210358E1,1.4928273E1,7.3881836E0,1.0714426E1,1.744577E1,3.23759E1,3.147104E1,8.021027E0,2.5470703E1,2.903421E-1,1.3864859E1,8.116531E-2,8.4309024E-1,0E0,0E0,0E0,0E0,0E0,0E0,0E0,0E0,0E0,0E0,0E0,0E0,0E0,0E0,0E0,0E0,0E0,0E0,0E0,0E0,0E0,0E0,0E0,0E0,0E0,0E0,0E0,0E0],"parents":[2147483647,0,0,1,1,2,2,3,3,4,4,5,5,6,6,7,7,8,8,9,9,10,10,11,11,12,12,14,14,15,15,16,16,17,17,18,18,19,19,20,20,21,21,22,22,23,23,24,24,25,25,26,26,27,27,28,28],"right_children":[2,4,6,8,10,12,14,16,18,20,22,24,26,-1,28,30,32,34,36,38,40,42,44,46,48,50,52,54,56,-1,-1,-1,-1,-1,-1,-1,-1,-1,-1,-1,-1,-1,-1,-1,-1,-1,-1,-1,-1,-1,-1,-1,-1,-1,-1,-1,-1],"split_conditions":[6.96E-1,3.3E1,3.326E1,1.6E-1,3.321E1,1.0446E2,3.499E0,3.759E0,1.342E0,3.421E0,3.23E0,1.342E0,2.8E1,-1.5739927E-1,3.462E1,2.977E1,1.453E1,9.49E-1,6.328E0,3.711E0,1.214E1,1.3711E1,3.8E1,3.6E1,1.697E0,5.763E0,1.38E0,7.08E-1,5.614E1,-6.431189E-2,2.4050824E-1,1.8971084E-1,-1.6905779E-1,-9.1573395E-2,2.3088142E-1,-1.905948E-1,1.5072447E-1,-1.948074E-1,3.5283525E-2,-3.2516677E-2,1.7740664E-1,-1.9250648E-2,-2.7550608E-1,6.7550994E-2,-1.1075947E-1,-2.3144975E-1,-1.00956656E-1,2.1033102E-1,-1.8182392E-1,-1.6840316E-1,-0E0,3.8347727E-1,-9.9254206E-2,2.7557254E-1,-0E0,3.5334423E-2,-1.03368215E-1],"split_indices":[1,0,6,7,4,4,12,11,11,11,9,13,0,0,6,4,5,13,14,12,3,3,0,0,11,12,7,2,10,0,0,0,0,0,0,0,0,0,0,0,0,0,0,0,0,0,0,0,0,0,0,0,0,0,0,0,0],"split_type":[0,0,0,0,0,0,0,0,0,0,0,0,0,0,0,0,0,0,0,0,0,0,0,0,0,0,0,0,0,0,0,0,0,0,0,0,0,0,0,0,0,0,0,0,0,0,0,0,0,0,0,0,0,0,0,0,0],"sum_hessian":[1.7590255E3,1.3586401E3,4.0038535E2,4.897832E2,8.68857E2,3.7938773E2,2.0997643E1,2.5592563E2,2.3385757E2,2.9068927E2,5.781677E2,3.6114072E2,1.8246996E1,5.4598055E0,1.5537837E1,1.3869104E2,1.1723459E2,4.223131E1,1.9162627E2,4.786781E1,2.4282146E2,1.7590924E2,4.0225848E2,3.0183694E2,5.9303776E1,7.2777715E0,1.0969225E1,1.1484284E1,4.0535526E0,4.159107E1,9.7099976E1,2.9573755E1,8.766083E1,3.2451958E1,9.779351E0,1.9011253E2,1.5137391E0,2.2681147E1,2.518666E1,2.8219261E1,2.1460219E2,1.3420107E2,4.1708168E1,3.217494E2,8.050907E1,2.5197171E2,4.9865227E1,1.0861182E1,4.8442593E1,6.2682953E0,1.0094763E0,6.893584E0,4.0756407E0,1.0471542E1,1.012742E0,1.3324561E0,2.7210965E0],"tree_param":{"num_deleted":"0","num_feature":"25","num_nodes":"57","size_leaf_vector":"1"}},{"base_weights":[-1.13073125E-1,3.0425938E-3,-6.234357E-1,1.1193199E-1,-1.7412308E-1,-2.516541E-1,-7.678912E-1,-7.1403867E-1,1.4899865E-1,-4.2291045E-2,-6.363694E-1,3.201666E-2,-7.217176E-1,-4.720382E-2,-8.360284E-1,-8.377611E-1,8.1367634E-2,-4.7930706E-1,2.0590545E-1,5.122931E-2,-8.3204436E-1,3.6977282E-1,-6.9410616E-1,-2.8562048E-1,6.764673E-1,-8.1377167E-1,1.854047E-1,-4.303069E-1,6.0565E-1,-3.6148125E-1,-8.973216E-1,4.1064236E-2,-2.3923478E-1,-1.2251205E-1,1.4363663E-1,-1.8817554E-1,-0E0,3.0677276E-2,1.3570543E-1,-2.149384E-2,1.5626739E-1,-2.2720604E-1,1.8809356E-2,-9.4257794E-2,2.802089E-1,-2.1548718E-1,-6.816348E-2,-1.8092953E-1,9.3966397E-4,3.0318815E-1,-0E0,-0E0,-2.2110017E-1,1.1823337E-1,-3.1476773E-2,8.609529E-2,-1.7829497E-1,-6.400752E-2,2.4325301E-1,-1.4753728E-1,2.5874776E-1,-4.2312525E-2,-2.3692147E-1],"categories":[],"categories_nodes":[],"categories_segments":[],"categories_sizes":[],"default_left":[0,0,0,0,0,0,0,0,0,0,0,0,0,0,0,0,0,0,0,0,0,0,0,0,0,0,0,0,0,0,0,0,0,0,0,0,0,0,0,0,0,0,0,0,0,0,0,0,0,0,0,0,0,0,0,0,0,0,0,0,0,0,0],"id":11,"left_children":[1,3,5,7,9,11,13,15,17,19,21,23,25,27,29,31,33,35,37,39,41,43,45,47,49,51,53,55,57,59,61,-1,-1,-1,-1,-1,-1,-1,-1,-1,-1,-1,-1,-1,-1,-1,-1,-1,-1,-1,-1,-1,-1,-1,-1,-1,-1,-1,-1,-1,-1,-1,-1],"loss_changes":[9.792703E1,2.597482E1,1.5253456E1,2.5702957E1,3.0732073E1,1.267062E1,1.0114166E1,4.155176E0,2.8960543E1,3.026926E1,7.589916E0,1.314502E1,3.7960167E0,6.61558E0,3.99794E0,3.5118408E0,2.90039E0,7.763797E0,2.004003E1,2.7129278E1,2.2632275E0,5.827696E0,4.9764557E0,5.3510127E0,7.3795156E0,9.1765594E-1,8.225169E-1,4.3020945E0,3.8303165E0,9.99375E0,7.0373535E-1,0E0,0E0,0E0,0E0,0E0,0E0,0E0,0E0,0E0,0E0,0E0,0E0,0E0,0E0,0E0,0E0,0E0,0E0,0E0,0E0,0E0,0E0,0E0,0E0,0E0,0E0,0E0,0E0,0E0,0E0,0E0,0E0],"parents":[2147483647,0,0,1,1,2,2,3,3,4,4,5,5,6,6,7,7,8,8,9,9,10,10,11,11,12,12,13,13,14,14,15,15,16,16,17,17,18,18,19,19,20,20,21,21,22,22,23,23,24,24,25,25,26,26,27,27,28,28,29,29,30,30],"right_children":[2,4,6,8,10,12,14,16,18,20,22,24,26,28,30,32,34,36,38,40,42,44,46,48,50,52,54,56,58,60,62,-1,-1,-1,-1,-1,-1,-1,-1,-1,-1,-1,-1,-1,-1,-1,-1,-1,-1,-1,-1,-1,-1,-1,-1,-1,-1,-1,-1,-1,-1,-1,-1],"split_conditions":[7.14E-1,6.065E1,6.28E-1,2.084E1,3.76E0,5.894E0,9E-1,3.5E1,1.082E0,5.997E1,1.649E1,9E-1,1.1955E1,4.04E0,6.804E1,6.71E-1,4.15E0,4.948E0,1.0538E1,3.53E0,7.16E-1,5.712E1,1.817E1,2.8E1,5.114E1,1E0,2.97E0,6.831E1,2.419E0,6.789E1,1.39E0,4.1064236E-2,-2.3923478E-1,-1.2251205E-1,1.4363663E-1,-1.8817554E-1,-0E0,3.0677276E-2,1.3570543E-1,-2.149384E-2,1.5626739E-1,-2.2720604E-1,1.8809356E-2,-9.4257794E-2,2.802089E-1,-2.1548718E-1,-6.816348E-2,-1.8092953E-1,9.3966397E-4,3.0318815E-1,-0E0,-0E0,-2.2110017E-1,1.1823337E-1,-3.1476773E-2,8.609529E-2,-1.7829497E-1,-6.400752E-2,2.4325301E-1,-1.4753728E-1,2.5874776E-1,-4.2312525E-2,-2.3692147E-1],"split_indices":[1,10,2,4,9,11,11,0,12,4,6,13,12,9,8,12,9,11,11,9,2,4,5,0,10,10,9,8,12,8,10,0,0,0,0,0,0,0,0,0,0,0,0,0,0,0,0,0,0,0,0,0,0,0,0,0,0,0,0,0,0,0,0],"split_type":[0,0,0,0,0,0,0,0,0,0,0,0,0,0,0,0,0,0,0,0,0,0,0,0,0,0,0,0,0,0,0,0,0,0,0,0,0,0,0,0,0,0,0,0,0,0,0,0,0,0,0,0,0,0,0,0,0,0,0,0,0,0,0],"sum_hessian":[1.6436206E3,1.3410171E3,3.026036E2,8.3309314E2,5.0792392E2,8.832987E1,2.1427373E2,3.245581E1,8.006373E2,3.9902454E2,1.0889938E2,5.6457317E1,3.1872557E1,1.9654177E1,1.9461954E2,2.8469694E1,3.986116E0,6.3605537E1,7.370318E2,3.5913647E2,3.988807E1,4.413445E0,1.0448594E2,3.86034E1,1.7853918E1,2.9763548E1,2.1090086E0,1.3620469E1,6.033708E0,2.5956543E1,1.68663E2,1.4661713E0,2.7003523E1,1.3455453E0,2.6405704E0,4.075266E1,2.2852877E1,5.8162384E2,1.5540794E2,2.904618E2,6.8674675E1,3.8766224E1,1.1218464E0,2.6616771E0,1.751768E0,7.631535E1,2.8170582E1,1.4642195E1,2.3961206E1,9.112982E0,8.740935E0,1.5337245E0,2.8229824E1,1.0895736E0,1.019435E0,2.6692567E0,1.0951212E1,1.5095123E0,4.524196E0,2.4622889E1,1.3336546E0,4.6295767E0,1.6403343E2],"tree_param":{"num_deleted":"0","num_feature":"25","num_nodes":"63","size_leaf_vector":"1"}},{"base_weights":[-9.396135E-2,3.998508E-3,-5.480007E-1,-7.8043394E-2,2.3748875E-1,-3.6243908E-2,-7.100871E-1,-3.2433424E-2,-7.6680356E-1,5.018913E-1,-0E0,3.0338976E-1,-5.462889E-1,9.973022E-2,-7.820898E-1,1.2082762E-2,-5.7381827E-1,-2.6113644E-1,5.2720463E-1,2.4149242E-1,8.031929E-1,3.801361E-1,-4.8049122E-1,-5.311833E-1,5.637524E-1,3.9853492E-1,-8.199784E-1,4.6884102E-1,-4.188724E-1,-1.4116694E-1,-8.137389E-1,5.9912328E-2,-3.573391E-2,-2.4948722E-1,1.0360784E-1,-8.035181E-2,2.2542769E-1,1.5694033E-1,-1.2573837E-1,-5.4556295E-2,2.3310713E-1,1.3255492E-1,-1.6917132E-1,1.3429494E-1,-1.5112916E-1,-1.7425065E-1,4.88302E-3,1.9614296E-1,-1.00263365E-1,-5.2581366E-2,1.7559701E-1,-2.2587074E-1,-0E0,-6.665114E-2,2.0352751E-1,-1.428059E-1,1.068026E-3,-9.906472E-2,1.06643744E-1,-2.4093029E-1,-1.3344038E-1],"categories":[],"categories_nodes":[],"categories_segments":[],"categories_sizes":[],"default_left":[0,0,0,0,0,0,0,0,0,0,0,0,0,0,0,0,0,0,0,0,0,0,0,0,0,0,0,0,0,0,0,0,0,0,0,0,0,0,0,0,0,0,0,0,0,0,0,0,0,0,0,0,0,0,0,0,0,0,0,0,0],"id":12,"left_children":[1,3,5,7,9,11,13,15,17,19,21,23,25,27,29,31,33,-1,35,37,39,41,43,45,47,49,51,53,55,57,59,-1,-1,-1,-1,-1,-1,-1,-1,-1,-1,-1,-1,-1,-1,-1,-1,-1,-1,-1,-1,-1,-1,-1,-1,-1,-1,-1,-1,-1,-1],"loss_changes":[7.0688416E1,2.5136562E1,2.2916626E1,2.9874672E1,2.1214146E1,1.3213602E1,1.3041595E1,2.225553E1,2.0287819E1,1.14087715E1,3.428207E1,1.0846687E1,9.29559E0,4.529233E0,3.1102905E0,2.7717405E1,2.7920977E1,0E0,4.3854017E0,2.5267017E1,7.8230247E0,1.5193272E1,9.368404E0,1.2910337E0,7.8032026E0,2.1852775E0,1.2406292E0,4.122011E0,8.085842E-1,2.4146466E0,3.9253845E0,0E0,0E0,0E0,0E0,0E0,0E0,0E0,0E0,0E0,0E0,0E0,0E0,0E0,0E0,0E0,0E0,0E0,0E0,0E0,0E0,0E0,0E0,0E0,0E0,0E0,0E0,0E0,0E0,0E0,0E0],"parents":[2147483647,0,0,1,1,2,2,3,3,4,4,5,5,6,6,7,7,8,8,9,9,10,10,11,11,12,12,13,13,14,14,15,15,16,16,18,18,19,19,20,20,21,21,22,22,23,23,24,24,25,25,26,26,27,27,28,28,29,29,30,30],"right_children":[2,4,6,8,10,12,14,16,18,20,22,24,26,28,30,32,34,-1,36,38,40,42,44,46,48,50,52,54,56,58,60,-1,-1,-1,-1,-1,-1,-1,-1,-1,-1,-1,-1,-1,-1,-1,-1,-1,-1,-1,-1,-1,-1,-1,-1,-1,-1,-1,-1,-1,-1],"split_conditions":[6.21E-1,1.53E0,1.697E0,1.3257E2,3.271E1,8.48E-1,3.57E0,1.26E2,2.9071E2,1.4E1,7.434E1,3.16E0,6.809E1,4.211E0,6.076E1,3.818E0,3.9E0,-2.6113644E-1,3.26E0,3.747E1,2.96E0,1.2735E1,1.44E-1,1.897E1,9.137E1,2.689E1,1.749E0,5.94E0,5.233E1,1.3159E1,3.4E1,5.9912328E-2,-3.573391E-2,-2.4948722E-1,1.0360784E-1,-8.035181E-2,2.2542769E-1,1.5694033E-1,-1.2573837E-1,-5.4556295E-2,2.3310713E-1,1.3255492E-1,-1.6917132E-1,1.3429494E-1,-1.5112916E-1,-1.7425065E-1,4.88302E-3,1.9614296E-1,-1.00263365E-1,-5.2581366E-2,1.7559701E-1,-2.2587074E-1,-0E0,-6.665114E-2,2.0352751E-1,-1.428059E-1,1.068026E-3,-9.906472E-2,1.06643744E-1,-2.4093029E-1,-1.3344038E-1],"split_indices":[2,14,11,10,10,14,10,4,10,10,8,9,8,12,8,11,12,0,9,4,9,11,2,5,10,4,13,11,4,12,0,0,0,0,0,0,0,0,0,0,0,0,0,0,0,0,0,0,0,0,0,0,0,0,0,0,0,0,0,0,0],"split_type":[0,0,0,0,0,0,0,0,0,0,0,0,0,0,0,0,0,0,0,0,0,0,0,0,0,0,0,0,0,0,0,0,0,0,0,0,0,0,0,0,0,0,0,0,0,0,0,0,0,0,0,0,0,0,0,0,0,0,0,0,0],"sum_hessian":[1.5795149E3,1.301156E3,2.7835895E2,9.6298047E2,3.3817554E2,6.87287E1,2.0963025E2,9.072901E2,5.5690353E1,1.5722162E2,1.809539E2,4.1519253E1,2.7209446E1,1.6439747E1,1.931905E2,8.406636E2,6.66265E1,4.8040398E1,7.649954E0,8.860755E1,6.861407E1,1.0199224E2,7.896166E1,8.550447E0,3.2968807E1,5.34256E0,2.1866888E1,1.0363549E1,6.076198E0,1.0733654E1,1.8245685E2,3.422772E2,4.9838638E2,4.810267E1,1.852383E1,1.8768989E0,5.773055E0,5.9945847E1,2.8661705E1,4.9702687E0,6.36438E1,9.2596146E1,9.396096E0,5.4675894E0,7.349407E1,6.940206E0,1.6102415E0,2.8492722E1,4.4760838E0,1.4130802E0,3.9294794E0,2.0743368E1,1.1235197E0,2.8439944E0,7.5195546E0,4.749437E0,1.3267615E0,8.865105E0,1.8685491E0,1.2611299E2,5.634386E1],"tree_param":{"num_deleted":"0","num_feature":"25","num_nodes":"61","size_leaf_vector":"1"}},{"base_weights":[-7.884343E-2,1.0000338E-3,-5.184003E-1,-1.2875766E-1,1.1672669E-1,-5.837052E-1,3.0498543E-1,3.7381628E-1,-2.4605888E-1,-2.878244E-1,2.5048164E-1,-8.1357956E-2,-6.786223E-1,-2.9031974E-1,9.201569E-1,6.819808E-1,-3.756195E-1,-3.63838E-1,3.1186393E-1,-5.4007757E-1,4.5080233E-1,-8.8509727E-1,3.027027E-1,-2.611955E-1,9.3137896E-1,-8.2405484E-1,-3.5346773E-1,-1.7350532E-1,2.8819695E-1,1.4352616E0,-8.067471E-2,2.222231E-1,-1.7142518E-1,-2.1591306E-1,8.294769E-2,-7.612358E-2,-4.4109127E-1,-1.1573953E-1,2.292115E-1,6.0055777E-2,-2.1943624E-1,-1.5714628E-1,2.1133125E-1,-2.655466E-1,8.9276254E-2,2.7616295E-1,5.529196E-2,-1.3145027E-1,1.6275555E-1,2.685061E-1,3.8174898E-3,-0E0,-2.2556812E-1,8.8353425E-2,-1.4216289E-1,1.7915948E-1,-6.0511485E-2,1.4192878E-3,4.1656637E-1],"categories":[],"categories_nodes":[],"categories_segments":[],"categories_sizes":[],"default_left":[0,0,0,0,0,0,0,0,0,0,0,0,0,0,0,0,0,0,0,0,0,0,0,0,0,0,0,0,0,0,0,0,0,0,0,0,0,0,0,0,0,0,0,0,0,0,0,0,0,0,0,0,0,0,0,0,0,0,0],"id":13,"left_children":[1,3,5,7,9,11,13,15,17,19,21,23,25,27,29,31,33,35,37,39,41,43,45,47,49,51,53,-1,55,57,-1,-1,-1,-1,-1,-1,-1,-1,-1,-1,-1,-1,-1,-1,-1,-1,-1,-1,-1,-1,-1,-1,-1,-1,-1,-1,-1,-1,-1],"loss_changes":[5.3656246E1,1.941902E1,1.3390419E1,3.6089436E1,3.7341827E1,9.885834E0,8.205727E0,2.7747292E1,3.299649E1,3.2776047E1,3.137542E1,7.7420235E0,7.053993E0,3.458211E0,8.835459E0,2.1445412E1,1.2388468E1,3.624737E1,3.9350224E1,3.1367153E1,1.8998436E1,5.4580154E0,3.265621E1,9.035567E0,1.1254311E-2,4.435753E0,9.304673E0,0E0,2.1711855E0,1.1645794E0,0E0,0E0,0E0,0E0,0E0,0E0,0E0,0E0,0E0,0E0,0E0,0E0,0E0,0E0,0E0,0E0,0E0,0E0,0E0,0E0,0E0,0E0,0E0,0E0,0E0,0E0,0E0,0E0,0E0],"parents":[2147483647,0,0,1,1,2,2,3,3,4,4,5,5,6,6,7,7,8,8,9,9,10,10,11,11,12,12,13,13,14,14,15,15,16,16,17,17,18,18,19,19,20,20,21,21,22,22,23,23,24,24,25,25,26,26,28,28,29,29],"right_children":[2,4,6,8,10,12,14,16,18,20,22,24,26,28,30,32,34,36,38,40,42,44,46,48,50,52,54,-1,56,58,-1,-1,-1,-1,-1,-1,-1,-1,-1,-1,-1,-1,-1,-1,-1,-1,-1,-1,-1,-1,-1,-1,-1,-1,-1,-1,-1,-1,-1],"split_conditions":[7.14E-1,3.4E1,1.0906E2,6.083E1,4.7E-1,6.818E1,7.707E1,2.107E1,1.994E1,4.958E1,7.108E1,6.788E1,3.2E1,4.13E0,4.5E1,3.59E1,3.5E0,1.957E1,3.43E0,7.084E1,3.4E0,2.27E0,7.244E1,1.2245E1,2.1E-1,4.77E0,7.424E1,-1.7350532E-1,4.34E0,2.23E1,-8.067471E-2,2.222231E-1,-1.7142518E-1,-2.1591306E-1,8.294769E-2,-7.612358E-2,-4.4109127E-1,-1.1573953E-1,2.292115E-1,6.0055777E-2,-2.1943624E-1,-1.5714628E-1,2.1133125E-1,-2.655466E-1,8.9276254E-2,2.7616295E-1,5.529196E-2,-1.3145027E-1,1.6275555E-1,2.685061E-1,3.8174898E-3,-0E0,-2.2556812E-1,8.8353425E-2,-1.4216289E-1,1.7915948E-1,-6.0511485E-2,1.4192878E-3,4.1656637E-1],"split_indices":[1,0,4,8,7,8,8,5,5,4,8,8,0,9,10,6,9,5,9,8,9,7,8,12,7,3,8,0,9,6,0,0,0,0,0,0,0,0,0,0,0,0,0,0,0,0,0,0,0,0,0,0,0,0,0,0,0,0,0],"split_type":[0,0,0,0,0,0,0,0,0,0,0,0,0,0,0,0,0,0,0,0,0,0,0,0,0,0,0,0,0,0,0,0,0,0,0,0,0,0,0,0,0,0,0,0,0,0,0,0,0,0,0,0,0,0,0,0,0,0,0],"sum_hessian":[1.5179302E3,1.2865829E3,2.3134726E2,6.0430054E2,6.8228235E2,2.1585344E2,1.5493822E1,1.12099E2,4.9220154E2,1.6759871E2,5.1468365E2,3.617352E1,1.7967993E2,8.400276E0,7.0935464E0,8.01315E1,3.1967503E1,4.0815298E2,8.404854E1,1.261382E2,4.146051E1,1.975271E1,4.9493094E2,3.3343536E1,2.82998E0,1.1937769E2,6.0302235E1,5.283859E0,3.1164174E0,4.876032E0,2.2175143E0,7.244508E1,7.6864147E0,1.9340265E1,1.2627238E1,3.9190176E2,1.625124E1,3.6043385E1,4.8005154E1,3.543323E1,9.070496E1,9.639096E0,3.1821415E1,1.8678444E1,1.0742671E0,4.7865345E1,4.4706558E2,2.776454E1,5.5789976E0,1.6582602E0,1.1717198E0,6.12398E0,1.1325371E2,1.2005853E1,4.8296383E1,1.6651462E0,1.4512713E0,1.2007161E0,3.6753159E0],"tree_param":{"num_deleted":"0","num_feature":"25","num_nodes":"59","size_leaf_vector":"1"}},{"base_weights":[-6.5196425E-2,-3.9155586E-3,-4.6334052E-1,-6.129062E-2,2.1379358E-1,-5.7399243E-2,-6.3358384E-1,3.089312E-1,-1.0017943E-1,1.0535313E0,6.8923235E-2,-4.6908954E-1,3.680002E-1,-0E0,-6.966934E-1,-3.37445E-2,1.0947814E0,-3.5514987E-1,9.248507E-3,-1.6687287E-1,1.4198109E0,-3.145543E-1,3.1478497E-1,-5.962014E-1,1.833174E-1,-4.084322E-1,6.906636E-1,-3.0660644E-1,1.4292453E-1,8.6524546E-2,-7.2782606E-1,-1.13608114E-1,1.367568E-1,3.5168645E-1,-8.659648E-3,-1.11097574E-1,1.5901554E-1,-2.5170878E-1,1.4401858E-2,4.120466E-1,-1.02669045E-1,-1.706648E-1,8.285738E-2,1.8853402E-1,-8.857612E-3,-1.8169211E-1,7.503967E-2,-8.1977E-2,1.694956E-1,7.252004E-3,-1.5734535E-1,2.4822481E-1,-1.08482756E-1,-1.5669733E-1,7.7566706E-2,-5.1366728E-2,-2.0814674E-1],"categories":[],"categories_nodes":[],"categories_segments":[],"categories_sizes":[],"default_left":[0,0,0,0,0,0,0,0,0,0,0,0,0,0,0,0,0,0,0,0,0,0,0,0,0,0,0,0,0,0,0,0,0,0,0,0,0,0,0,0,0,0,0,0,0,0,0,0,0,0,0,0,0,0,0,0,0],"id":14,"left_children":[1,3,5,7,9,11,13,15,17,19,21,23,25,27,29,31,33,35,37,-1,39,41,43,45,47,49,51,53,-1,-1,55,-1,-1,-1,-1,-1,-1,-1,-1,-1,-1,-1,-1,-1,-1,-1,-1,-1,-1,-1,-1,-1,-1,-1,-1,-1,-1],"loss_changes":[3.5484547E1,1.5877207E1,1.29471855E1,1.4580443E1,3.1371979E1,1.1529069E1,5.7462387E0,2.647783E1,2.5854942E1,2.7285038E1,2.2022823E1,3.3828697E0,9.1206045E0,3.2505474E0,5.0188713E0,1.6493633E1,9.444969E0,2.0195618E1,2.8856297E1,0E0,1.2583305E1,2.0550724E1,2.0850025E1,3.6040926E0,2.6468651E0,1.301428E0,8.76922E0,2.8242812E0,0E0,0E0,3.6494904E0,0E0,0E0,0E0,0E0,0E0,0E0,0E0,0E0,0E0,0E0,0E0,0E0,0E0,0E0,0E0,0E0,0E0,0E0,0E0,0E0,0E0,0E0,0E0,0E0,0E0,0E0],"parents":[2147483647,0,0,1,1,2,2,3,3,4,4,5,5,6,6,7,7,8,8,9,9,10,10,11,11,12,12,13,13,14,14,15,15,16,16,17,17,18,18,20,20,21,21,22,22,23,23,24,24,25,25,26,26,27,27,30,30],"right_children":[2,4,6,8,10,12,14,16,18,20,22,24,26,28,30,32,34,36,38,-1,40,42,44,46,48,50,52,54,-1,-1,56,-1,-1,-1,-1,-1,-1,-1,-1,-1,-1,-1,-1,-1,-1,-1,-1,-1,-1,-1,-1,-1,-1,-1,-1,-1,-1],"split_conditions":[7.24E-1,1.237E0,2.184E0,6.08E1,1.53E0,1E0,6.08E1,1E0,3.3E1,3.613E0,1.261E1,1.1813E2,3.113E1,1.2614E1,1.45E-1,1.273E0,3E1,2.6429E2,7.018E1,-1.6687287E-1,6.788E0,4.867E1,1.348E1,1.8224E1,3.5E1,1.203E1,1.0029E2,6.057E1,1.4292453E-1,8.6524546E-2,1.8E1,-1.13608114E-1,1.367568E-1,3.5168645E-1,-8.659648E-3,-1.11097574E-1,1.5901554E-1,-2.5170878E-1,1.4401858E-2,4.120466E-1,-1.02669045E-1,-1.706648E-1,8.285738E-2,1.8853402E-1,-8.857612E-3,-1.8169211E-1,7.503967E-2,-8.1977E-2,1.694956E-1,7.252004E-3,-1.5734535E-1,2.4822481E-1,-1.08482756E-1,-1.5669733E-1,7.7566706E-2,-5.1366728E-2,-2.0814674E-1],"split_indices":[1,13,11,8,11,18,8,24,0,12,3,4,4,12,2,14,0,10,8,0,12,4,3,3,0,5,10,8,0,0,10,0,0,0,0,0,0,0,0,0,0,0,0,0,0,0,0,0,0,0,0,0,0,0,0,0,0],"split_type":[0,0,0,0,0,0,0,0,0,0,0,0,0,0,0,0,0,0,0,0,0,0,0,0,0,0,0,0,0,0,0,0,0,0,0,0,0,0,0,0,0,0,0,0,0,0,0,0,0,0,0,0,0,0,0,0,0],"sum_hessian":[1.460703E3,1.270017E3,1.9068607E2,1.00893384E3,2.610831E2,5.8591938E1,1.3209412E2,9.237375E1,9.165601E2,3.467663E1,2.2640648E2,3.0190386E1,2.8401552E1,1.161421E1,1.2047991E2,6.621407E1,2.6159674E1,2.7425275E2,6.423074E2,5.450522E0,2.9226107E1,8.727291E1,1.3913358E2,2.6161188E1,4.0291996E0,7.6098456E0,2.0791706E1,7.9054456E0,3.7087646E0,2.069625E0,1.18410286E2,3.945396E1,2.6760118E1,2.108629E1,5.0733824E0,2.575053E2,1.6747435E1,2.531627E1,6.169911E2,2.7449455E1,1.7766517E0,5.7106087E1,3.016682E1,6.2855957E1,7.627761E1,2.4608149E1,1.5530384E0,1.9898233E0,2.0393763E0,2.5086663E0,5.101179E0,1.7545372E1,3.2463336E0,5.8714E0,2.0340457E0,1.6681637E1,1.01728645E2],"tree_param":{"num_deleted":"0","num_feature":"25","num_nodes":"57","size_leaf_vector":"1"}},{"base_weights":[-5.257757E-2,-2.960239E-3,-4.774352E-1,-1.8852307E-1,8.530145E-2,3.4307194E-1,-6.979424E-1,7.6313406E-2,-5.2681553E-1,-4.3639213E-1,1.303943E-1,-1.7204602E-1,7.0327E-1,-7.3633564E-1,1.5186787E-1,6.3738215E-1,-1.035361E-1,-6.6811E-1,2.829774E-1,-9.296076E-1,-2.933667E-2,-3.3911106E-3,3.807343E-1,9.0694886E-1,-1.0092675E-1,-1.6501425E-1,-8.140887E-1,-1.2663491E-1,2.5742984E-1,-1.136579E-1,7.115098E-2,1.0721004E-1,-2.1428466E-1,2.1956436E-1,-1.5070404E-1,1.9717649E-2,-2.7173772E-1,-1.6477899E-1,5.2398764E-2,1.189401E-1,-3.0940589E-2,-2.1692455E-1,1.2184915E-1,2.6839307E-1,-5.5863112E-2,-1.545097E-1,1.3477647E-1,-9.055746E-2,-2.3628406E-1],"categories":[],"categories_nodes":[],"categories_segments":[],"categories_sizes":[],"default_left":[0,0,0,0,0,0,0,0,0,0,0,0,0,0,0,0,0,0,0,0,0,0,0,0,0,0,0,0,0,0,0,0,0,0,0,0,0,0,0,0,0,0,0,0,0,0,0,0,0],"id":15,"left_children":[1,3,5,7,9,11,13,15,17,19,21,-1,23,25,-1,27,29,31,33,35,37,39,41,43,-1,45,47,-1,-1,-1,-1,-1,-1,-1,-1,-1,-1,-1,-1,-1,-1,-1,-1,-1,-1,-1,-1,-1,-1],"loss_changes":[2.949361E1,2.0871824E1,2.7512268E1,3.723864E1,2.0270906E1,1.3552144E1,7.343506E0,2.4016624E1,2.1677464E1,1.3141775E1,2.6815983E1,0E0,7.3319416E0,4.1748123E0,0E0,2.4840315E1,2.3003834E1,2.778756E1,1.5877194E1,4.2728653E0,6.4681697E0,2.7738379E1,3.0902527E1,4.499632E0,0E0,6.6915197E0,2.6779785E0,0E0,0E0,0E0,0E0,0E0,0E0,0E0,0E0,0E0,0E0,0E0,0E0,0E0,0E0,0E0,0E0,0E0,0E0,0E0,0E0,0E0,0E0],"parents":[2147483647,0,0,1,1,2,2,3,3,4,4,5,5,6,6,7,7,8,8,9,9,10,10,12,12,13,13,15,15,16,16,17,17,18,18,19,19,20,20,21,21,22,22,23,23,25,25,26,26],"right_children":[2,4,6,8,10,12,14,16,18,20,22,-1,24,26,-1,28,30,32,34,36,38,40,42,44,-1,46,48,-1,-1,-1,-1,-1,-1,-1,-1,-1,-1,-1,-1,-1,-1,-1,-1,-1,-1,-1,-1,-1,-1],"split_conditions":[1.3188E2,3.2E1,6.376E1,3.662E0,7.018E1,3.818E0,3.487E1,6.094E1,2.1E0,1.7874E1,1.854E1,-1.7204602E-1,6.607E0,2.1E1,1.5186787E-1,2.991E1,3.245E0,3.29E0,7.059E1,1.428E1,2.184E0,8.717E0,2.74E0,2.9E1,-1.0092675E-1,8.717E0,2.719E1,-1.2663491E-1,2.5742984E-1,-1.136579E-1,7.115098E-2,1.0721004E-1,-2.1428466E-1,2.1956436E-1,-1.5070404E-1,1.9717649E-2,-2.7173772E-1,-1.6477899E-1,5.2398764E-2,1.189401E-1,-3.0940589E-2,-2.1692455E-1,1.2184915E-1,2.6839307E-1,-5.5863112E-2,-1.545097E-1,1.3477647E-1,-9.055746E-2,-2.3628406E-1],"split_indices":[10,0,8,11,8,12,6,8,14,3,5,0,11,0,0,4,12,10,8,5,12,3,9,0,0,3,4,0,0,0,0,0,0,0,0,0,0,0,0,0,0,0,0,0,0,0,0,0,0],"split_type":[0,0,0,0,0,0,0,0,0,0,0,0,0,0,0,0,0,0,0,0,0,0,0,0,0,0,0,0,0,0,0,0,0,0,0,0,0,0,0,0,0,0,0,0,0,0,0,0,0],"sum_hessian":[1.4072367E3,1.2642871E3,1.4294951E2,4.0806137E2,8.5622577E2,2.9387125E1,1.13562386E2,2.2957117E2,1.784902E2,6.482179E1,7.91404E2,6.615363E0,2.277176E1,1.1208559E2,1.4767984E0,5.4239307E1,1.7533185E2,1.5302063E2,2.5469572E1,2.67221E1,3.809969E1,5.1671765E2,2.746863E2,2.0075216E1,2.6965451E0,1.5506211E1,9.657938E1,1.2295002E1,4.1944305E1,9.3449524E1,8.1882324E1,1.8183058E1,1.3483757E2,1.5823028E1,9.646544E0,2.432113E0,2.4289986E1,9.44088E0,2.8658812E1,1.0068596E2,4.160317E2,1.6145325E1,2.58541E2,1.8709908E1,1.3653085E0,1.0253663E1,5.2525477E0,1.9975805E1,7.660357E1],"tree_param":{"num_deleted":"0","num_feature":"25","num_nodes":"49","size_leaf_vector":"1"}},{"base_weights":[-4.6773147E-2,-6.7165084E-3,-4.3680984E-1,-6.168872E-1,1.4913614E-2,3.0042452E-1,-6.37813E-1,-8.0981547E-1,4.0127432E-1,7.223672E-2,-2.422891E-1,-1.5187323E-1,6.119692E-1,-6.8030864E-1,1.1565753E-1,-0E0,-9.4510317E-1,-5.554118E-2,1.8312211E-1,-3.3848453E-1,1.1731379E-1,-7.1769667E-1,5.0162237E-2,8.0583084E-1,-9.12016E-2,-3.527932E-1,-8.647012E-1,-6.662613E-2,8.38952E-2,-8.168644E-2,-2.7228272E-1,-2.6464758E-2,-1.9255652E-1,1.12686954E-1,9.878864E-3,-2.3697482E-1,3.123709E-2,-3.633592E-2,1.9502799E-1,2.4094035E-1,-4.8572585E-2,-2.1566483E-1,4.7481246E-2,-0E0,-2.3257418E-1],"categories":[],"categories_nodes":[],"categories_segments":[],"categories_sizes":[],"default_left":[0,0,0,0,0,0,0,0,0,0,0,0,0,0,0,0,0,0,0,0,0,0,0,0,0,0,0,0,0,0,0,0,0,0,0,0,0,0,0,0,0,0,0,0,0],"id":16,"left_children":[1,3,5,7,9,11,13,15,17,19,21,-1,23,25,-1,27,29,-1,-1,31,33,35,37,39,-1,41,43,-1,-1,-1,-1,-1,-1,-1,-1,-1,-1,-1,-1,-1,-1,-1,-1,-1,-1],"loss_changes":[2.0839733E1,1.6538065E1,1.9273035E1,9.77039E0,1.749778E1,9.117968E0,5.7500687E0,4.323885E0,2.4048269E0,1.8100157E1,3.0463953E1,0E0,5.547101E0,4.2100754E0,0E0,1.0199513E0,2.608204E-1,0E0,0E0,8.484404E0,2.1852242E1,1.4263863E1,1.8781572E1,3.472064E0,0E0,1.1572849E1,1.4412384E0,0E0,0E0,0E0,0E0,0E0,0E0,0E0,0E0,0E0,0E0,0E0,0E0,0E0,0E0,0E0,0E0,0E0,0E0],"parents":[2147483647,0,0,1,1,2,2,3,3,4,4,5,5,6,6,7,7,8,8,9,9,10,10,12,12,13,13,15,15,16,16,19,19,20,20,21,21,22,22,23,23,25,25,26,26],"right_children":[2,4,6,8,10,12,14,16,18,20,22,-1,24,26,-1,28,30,-1,-1,32,34,36,38,40,-1,42,44,-1,-1,-1,-1,-1,-1,-1,-1,-1,-1,-1,-1,-1,-1,-1,-1,-1,-1],"split_conditions":[1.3286E2,1.842E1,6.352E1,7.733E1,2.94E0,3.818E0,3.464E1,1.5E0,1.854E1,1.2E0,4.25E0,-1.5187323E-1,6.607E0,3.132E0,1.1565753E-1,1.582E1,5.892E1,-5.554118E-2,1.8312211E-1,4.392E1,1.697E0,9.057E1,2.027E1,2.9E1,-9.12016E-2,4.8E0,1.9E1,-6.662613E-2,8.38952E-2,-8.168644E-2,-2.7228272E-1,-2.6464758E-2,-1.9255652E-1,1.12686954E-1,9.878864E-3,-2.3697482E-1,3.123709E-2,-3.633592E-2,1.9502799E-1,2.4094035E-1,-4.8572585E-2,-2.1566483E-1,4.7481246E-2,-0E0,-2.3257418E-1],"split_indices":[10,4,8,8,7,12,6,12,5,12,7,0,11,12,0,4,8,0,0,4,11,10,5,0,0,11,0,0,0,0,0,0,0,0,0,0,0,0,0,0,0,0,0,0,0],"split_type":[0,0,0,0,0,0,0,0,0,0,0,0,0,0,0,0,0,0,0,0,0,0,0,0,0,0,0,0,0,0,0,0,0,0,0,0,0,0,0,0,0,0,0,0,0],"sum_hessian":[1.3452173E3,1.224322E3,1.2089526E2,3.940931E1,1.1849127E3,2.4996181E1,9.5899086E1,3.4146317E1,5.262994E0,9.726074E2,2.1230527E2,5.2950435E0,1.9701138E1,9.397302E1,1.9260644E0,5.1656475E0,2.8980669E1,1.5337471E0,3.7292466E0,9.283792E1,8.7976953E2,7.957269E1,1.3273257E2,1.7306116E1,2.395021E0,3.849925E1,5.547377E1,2.9162052E0,2.249442E0,6.707665E0,2.2273005E1,6.1982662E1,3.0855263E1,1.7207805E2,7.0769147E2,6.486288E1,1.4709816E1,1.0604601E2,2.6686562E1,1.6084015E1,1.2221026E0,1.9843664E1,1.8655586E1,2.0645862E0,5.3409184E1],"tree_param":{"num_deleted":"0","num_feature":"25","num_nodes":"45","size_leaf_vector":"1"}},{"base_weights":[-4.0265292E-2,3.1737206E-3,-3.4076196E-1,7.338848E-2,-1.8832824E-1,2.639616E-1,-4.9611175E-1,4.997808E-2,1.5156232E0,-8.2945055E-1,2.751961E-2,-2.6430792E-1,5.1081175E-1,-1.0680295E-1,-6.640844E-1,1.2816468E-1,-2.9975095E-1,-7.205646E-2,1.9656262E0,-2.3619115E-2,-1.0689728E0,-1.316982E-1,3.9763457E-1,2.5320137E-1,-5.4478276E-1,9.7451705E-1,-1.9559336E-1,-3.8863245E-1,3.2400128E-1,-3.049382E-2,-7.7110577E-1,-1.5390237E-2,8.141791E-2,-1.4016242E-1,6.738554E-2,3.785303E-2,5.7451105E-1,-1.328089E-1,1.7210712E-1,-4.8076145E-2,-3.637747E-1,-1.9224639E-1,7.5097554E-3,-1.8730856E-1,1.6571295E-1,-4.4100735E-4,1.1058617E-1,-1.5532054E-1,-0E0,2.1119319E-2,3.2587972E-1,6.1392844E-2,-1.3400243E-1,1.1595344E-1,-1.7484929E-1,-7.6397814E-2,1.4681628E-1,1.9627006E-1,-1.4476159E-1,-2.094536E-1,-1.4134986E-2],"categories":[],"categories_nodes":[],"categories_segments":[],"categories_sizes":[],"default_left":[0,0,0,0,0,0,0,0,0,0,0,0,0,0,0,0,0,0,0,0,0,0,0,0,0,0,0,0,0,0,0,0,0,0,0,0,0,0,0,0,0,0,0,0,0,0,0,0,0,0,0,0,0,0,0,0,0,0,0,0,0],"id":17,"left_children":[1,3,5,7,9,11,13,15,17,19,21,23,25,27,29,31,33,-1,35,37,39,41,43,45,47,49,51,53,55,57,59,-1,-1,-1,-1,-1,-1,-1,-1,-1,-1,-1,-1,-1,-1,-1,-1,-1,-1,-1,-1,-1,-1,-1,-1,-1,-1,-1,-1,-1,-1],"loss_changes":[1.741641E1,1.55375E1,1.6388186E1,2.7665699E1,4.327818E1,5.2944617E0,8.246761E0,2.3040035E1,1.3338142E1,1.4534527E1,1.4115759E1,2.5353093E0,9.702766E0,6.058071E0,5.8433876E0,2.4133585E1,2.1164047E1,0E0,2.6467247E0,8.477536E0,1.5823074E1,1.6572933E1,2.0930706E1,4.9427053E-1,2.3846531E-1,3.1981163E0,2.3532205E0,8.294409E0,3.6007872E0,8.729903E0,1.3693352E0,0E0,0E0,0E0,0E0,0E0,0E0,0E0,0E0,0E0,0E0,0E0,0E0,0E0,0E0,0E0,0E0,0E0,0E0,0E0,0E0,0E0,0E0,0E0,0E0,0E0,0E0,0E0,0E0,0E0,0E0],"parents":[2147483647,0,0,1,1,2,2,3,3,4,4,5,5,6,6,7,7,8,8,9,9,10,10,11,11,12,12,13,13,14,14,15,15,16,16,18,18,19,19,20,20,21,21,22,22,23,23,24,24,25,25,26,26,27,27,28,28,29,29,30,30],"right_children":[2,4,6,8,10,12,14,16,18,20,22,24,26,28,30,32,34,-1,36,38,40,42,44,46,48,50,52,54,56,58,60,-1,-1,-1,-1,-1,-1,-1,-1,-1,-1,-1,-1,-1,-1,-1,-1,-1,-1,-1,-1,-1,-1,-1,-1,-1,-1,-1,-1,-1,-1],"split_conditions":[6.29E-1,2.722E1,6.29E-1,2.712E1,1.4862E1,2.4E0,1.697E0,1.403E1,3.35E0,2.86E0,7.446E1,1.767E1,3.9E0,3.84E0,1.471E1,1.1679E1,4.28E0,-7.205646E-2,1.4343E1,2.895E1,2.683E0,2.992E1,3.11E0,4.29E0,1.2214E2,3.3E1,6E-1,2.1E1,9.78E0,9.47E0,1.8287E1,-1.5390237E-2,8.141791E-2,-1.4016242E-1,6.738554E-2,3.785303E-2,5.7451105E-1,-1.328089E-1,1.7210712E-1,-4.8076145E-2,-3.637747E-1,-1.9224639E-1,7.5097554E-3,-1.8730856E-1,1.6571295E-1,-4.4100735E-4,1.1058617E-1,-1.5532054E-1,-0E0,2.1119319E-2,3.2587972E-1,6.1392844E-2,-1.3400243E-1,1.1595344E-1,-1.7484929E-1,-7.6397814E-2,1.4681628E-1,1.9627006E-1,-1.4476159E-1,-2.094536E-1,-1.4134986E-2],"split_indices":[2,6,1,6,3,12,11,3,9,9,8,10,9,9,10,3,9,0,3,6,11,6,9,9,10,0,14,0,3,3,3,0,0,0,0,0,0,0,0,0,0,0,0,0,0,0,0,0,0,0,0,0,0,0,0,0,0,0,0,0,0],"split_type":[0,0,0,0,0,0,0,0,0,0,0,0,0,0,0,0,0,0,0,0,0,0,0,0,0,0,0,0,0,0,0,0,0,0,0,0,0,0,0,0,0,0,0,0,0,0,0,0,0,0,0,0,0,0,0,0,0,0,0,0,0],"sum_hessian":[1.3175345E3,1.152702E3,1.6483247E2,8.46939E2,3.0576303E2,3.25318E1,1.3230067E2,8.373157E2,9.623363E0,7.509093E1,2.306721E2,9.636418E0,2.289538E1,4.2500263E1,8.9800415E1,6.873062E2,1.5000946E2,1.9777193E0,7.6456437E0,1.856495E1,5.6525974E1,1.6192018E2,6.875193E1,2.8800452E0,6.756373E0,1.3447468E1,9.447911E0,2.6601175E1,1.5899088E1,1.4301508E1,7.549891E1,3.4129895E2,3.4600723E2,1.05746864E2,4.4262604E1,1.8068433E0,5.8388004E0,1.1800639E1,6.7643104E0,1.7266481E1,3.925949E1,3.1857056E1,1.3006311E2,1.053119E1,5.822074E1,1.3869382E0,1.493107E0,5.697827E0,1.0585463E0,4.701067E0,8.746401E0,3.7448192E0,5.7030926E0,5.7969737E0,2.0804201E1,3.6580305E0,1.2241057E1,4.747043E0,9.554464E0,7.095359E1,4.545321E0],"tree_param":{"num_deleted":"0","num_feature":"25","num_nodes":"61","size_leaf_vector":"1"}},{"base_weights":[-3.4131654E-2,9.43811E-3,-2.981656E-1,2.6254619E-2,-2.7941257E-1,-5.462901E-1,2.4580067E-1,1.7167713E-1,-7.435061E-2,-0E0,-6.3377744E-1,5.699219E-1,-9.953449E-1,2.648507E-1,-4.2863384E-1,-6.261768E-1,3.1658474E-2,9.652803E-1,-3.2819545E-1,-6.847231E-1,5.255651E-1,-4.8573583E-1,9.433757E-1,-2.959447E-1,-0E0,-1.1266532E-2,1.3139506E-1,-1.5150139E-1,9.206899E-2,-1.8425246E-1,1.1260902E-1,3.8903847E-2,-6.978573E-2,-6.0875643E-2,4.032459E-1,-1.5075926E-1,5.318507E-2,1.5247705E-2,-1.9436255E-1,2.8749377E-1,-6.597626E-2,2.1144014E-2,-1.9903994E-1,3.185174E-1,-2.9685427E-3],"categories":[],"categories_nodes":[],"categories_segments":[],"categories_sizes":[],"default_left":[0,0,0,0,0,0,0,0,0,0,0,0,0,0,0,0,0,0,0,0,0,0,0,0,0,0,0,0,0,0,0,0,0,0,0,0,0,0,0,0,0,0,0,0,0],"id":18,"left_children":[1,3,5,7,-1,9,11,13,15,17,19,21,23,25,27,29,31,33,35,37,39,41,43,-1,-1,-1,-1,-1,-1,-1,-1,-1,-1,-1,-1,-1,-1,-1,-1,-1,-1,-1,-1,-1,-1],"loss_changes":[1.4966534E1,1.9755713E1,2.5469883E1,1.6098013E1,0E0,6.3482513E0,2.5690697E1,2.5509014E1,3.821638E1,7.870353E0,7.896347E0,2.1422102E1,2.4295664E0,2.9422373E1,8.208632E0,1.0403637E1,1.9385244E1,6.4223742E0,2.9809322E0,5.554802E0,4.2295666E0,2.931288E0,1.0941765E1,0E0,0E0,0E0,0E0,0E0,0E0,0E0,0E0,0E0,0E0,0E0,0E0,0E0,0E0,0E0,0E0,0E0,0E0,0E0,0E0,0E0,0E0],"parents":[2147483647,0,0,1,1,2,2,3,3,5,5,6,6,7,7,8,8,9,9,10,10,11,11,12,12,13,13,14,14,15,15,16,16,17,17,18,18,19,19,20,20,21,21,22,22],"right_children":[2,4,6,8,-1,10,12,14,16,18,20,22,24,26,28,30,32,34,36,38,40,42,44,-1,-1,-1,-1,-1,-1,-1,-1,-1,-1,-1,-1,-1,-1,-1,-1,-1,-1,-1,-1,-1,-1],"split_conditions":[7.971E1,1.9558E1,2.515E1,2.403E1,-2.7941257E-1,1.584E1,4.43E0,1.3136E1,1.2539E1,3.04E0,1E0,3.21E0,5.23E1,1.415E1,3.5E1,9.28E-1,4.196E1,1.611E1,1.3189E1,1.634E1,2.66E0,8.058E1,3.76E0,-2.959447E-1,-0E0,-1.1266532E-2,1.3139506E-1,-1.5150139E-1,9.206899E-2,-1.8425246E-1,1.1260902E-1,3.8903847E-2,-6.978573E-2,-6.0875643E-2,4.032459E-1,-1.5075926E-1,5.318507E-2,1.5247705E-2,-1.9436255E-1,2.8749377E-1,-6.597626E-2,2.1144014E-2,-1.9903994E-1,3.185174E-1,-2.9685427E-3],"split_indices":[8,11,6,6,0,10,12,3,3,9,22,9,4,5,0,1,4,5,3,6,9,8,9,0,0,0,0,0,0,0,0,0,0,0,0,0,0,0,0,0,0,0,0,0,0],"split_type":[0,0,0,0,0,0,0,0,0,0,0,0,0,0,0,0,0,0,0,0,0,0,0,0,0,0,0,0,0,0,0,0,0,0,0,0,0,0,0,0,0,0,0,0,0],"sum_hessian":[1.2840919E3,1.1034812E3,1.8061061E2,1.0904429E3,1.3038422E1,1.2465483E2,5.595578E1,4.4692316E2,6.4351965E2,1.713473E1,1.075201E2,4.618928E1,9.766497E0,3.8929056E2,5.7632603E1,1.0169467E2,5.41825E2,2.8961203E0,1.4238609E1,1.0477983E2,2.7402687E0,1.1445276E1,3.4744007E1,8.519692E0,1.2468045E0,1.7098705E2,2.1830353E2,4.94357E1,8.196903E0,9.586055E1,5.8341236E0,3.9137534E2,1.5044965E2,1.3593245E0,1.5367959E0,1.009796E1,4.140649E0,7.5632467E0,9.721658E1,1.0982397E0,1.642029E0,4.0113926E0,7.433884E0,2.6468094E1,8.275913E0],"tree_param":{"num_deleted":"0","num_feature":"25","num_nodes":"45","size_leaf_vector":"1"}},{"base_weights":[-2.9622111E-2,-1.883175E-2,-2.5615245E-1,9.835589E-3,-3.5102022E-1,1.1974536E0,-7.015513E-4,5.778174E-2,-7.1687245E-1,5.1042765E-1,-1.6665109E-1,-5.7432454E-2,2.1749939E-1,-5.001322E-1,4.717892E-1,-0E0,-7.4567395E-1,-9.268043E-2,2.4099294E-2,-8.042292E-2,-1.8089077E-3,-2.0847622E-2,1.2392893E-1,-1.7538773E-1,4.4703845E-2,1.5045463E-1,-7.700328E-2,-9.960678E-2,-2.3568134E-1],"categories":[],"categories_nodes":[],"categories_segments":[],"categories_sizes":[],"default_left":[0,0,0,0,0,0,0,0,0,0,0,0,0,0,0,0,0,0,0,0,0,0,0,0,0,0,0,0,0],"id":19,"left_children":[1,3,-1,5,7,9,11,13,15,-1,17,19,21,23,25,-1,27,-1,-1,-1,-1,-1,-1,-1,-1,-1,-1,-1,-1],"loss_changes":[1.241058E1,1.2073388E1,0E0,1.5010804E1,1.553173E1,1.3058851E1,1.4130092E1,1.2393166E1,1.3576679E0,0E0,5.814223E-1,1.1440399E1,1.846537E1,3.3000216E0,3.2936268E0,0E0,1.1936646E0,0E0,0E0,0E0,0E0,0E0,0E0,0E0,0E0,0E0,0E0,0E0,0E0],"parents":[2147483647,0,0,1,1,3,3,4,4,5,5,6,6,7,7,8,8,10,10,11,11,12,12,13,13,14,14,16,16],"right_children":[2,4,-1,6,8,10,12,14,16,-1,18,20,22,24,26,-1,28,-1,-1,-1,-1,-1,-1,-1,-1,-1,-1,-1,-1],"split_conditions":[2.1393E1,1.3129E2,-2.5615245E-1,2.04E0,7.356E1,6.128E0,1.237E0,1.5E0,8.12E0,5.1042765E-1,5.239E0,1.414E1,4.295E0,2.9929E2,1.1031E1,-0E0,2.955E0,-9.268043E-2,2.4099294E-2,-8.042292E-2,-1.8089077E-3,-2.0847622E-2,1.2392893E-1,-1.7538773E-1,4.4703845E-2,1.5045463E-1,-7.700328E-2,-9.960678E-2,-2.3568134E-1],"split_indices":[11,10,0,9,8,3,13,14,5,0,11,5,12,10,11,0,12,0,0,0,0,0,0,0,0,0,0,0,0],"split_type":[0,0,0,0,0,0,0,0,0,0,0,0,0,0,0,0,0,0,0,0,0,0,0,0,0,0,0,0,0],"sum_hessian":[1.2551041E3,1.2451364E3,9.967806E0,1.1479603E3,9.717596E1,7.045841E0,1.1409146E3,4.6640537E1,5.0535423E1,3.762964E0,3.2828772E0,9.093574E2,2.3155708E2,1.9042788E1,2.759775E1,1.6518873E0,4.8883533E1,2.2519164E0,1.0309608E0,1.4715482E2,7.6220264E2,1.0799377E2,1.23563324E2,1.5699055E1,3.3437338E0,2.5554834E1,2.0429153E0,1.961113E1,2.9272404E1],"tree_param":{"num_deleted":"0","num_feature":"25","num_nodes":"29","size_leaf_vector":"1"}},{"base_weights":[-2.4316944E-2,1.82941E-2,-2.4030446E-1,-5.230346E-1,4.128569E-2,-4.9588746E-1,1.6463533E-1,-6.7653865E-1,2.9501712E-1,5.2761936E-1,6.4451313E-3,-7.430252E-1,2.6040238E-1,-6.7207985E-2,7.7548337E-1,9.273926E-2,-7.629207E-1,-6.177232E-2,1.6197798E-1,-5.41218E-1,7.718052E-1,-3.6225742E-1,5.3545915E-2,-5.810901E-1,-1.1403942E0,-4.3264446E-1,8.841753E-1,9.013113E-1,-2.631E-1,1.1784343E0,-4.5418856E-1,-4.296138E-2,9.557589E-2,2.2464171E-2,-2.1755113E-1,-1.8945543E-1,6.81558E-2,2.4533889E-1,-1.5256783E-1,3.8479102E-1,-1.3015443E-1,-3.316642E-2,4.598072E-2,-1.9348103E-1,7.5836023E-3,-3.5106245E-1,-5.2508328E-2,7.919258E-2,-2.3929623E-1,2.8948933E-1,-6.284078E-2,4.6628216E-1,-1.1659155E-1,-1.09966405E-1,2.5675616E-1,3.7164542E-1,-5.237722E-2,-1.331136E-1,-0E0],"categories":[],"categories_nodes":[],"categories_segments":[],"categories_sizes":[],"default_left":[0,0,0,0,0,0,0,0,0,0,0,0,0,0,0,0,0,0,0,0,0,0,0,0,0,0,0,0,0,0,0,0,0,0,0,0,0,0,0,0,0,0,0,0,0,0,0,0,0,0,0,0,0,0,0,0,0,0,0],"id":20,"left_children":[1,3,5,7,9,11,13,15,17,19,21,23,25,27,29,31,33,-1,-1,35,37,39,41,43,45,47,49,51,53,55,57,-1,-1,-1,-1,-1,-1,-1,-1,-1,-1,-1,-1,-1,-1,-1,-1,-1,-1,-1,-1,-1,-1,-1,-1,-1,-1,-1,-1],"loss_changes":[1.15464E1,1.2749886E1,2.1838001E1,6.1192455E0,1.6657558E1,2.490132E1,1.212527E1,3.0178566E0,2.1960402E0,1.8755283E1,1.6189667E1,3.1335564E0,1.613164E1,1.2263125E1,1.3822883E1,7.559353E-1,2.7540493E0,0E0,0E0,2.9975948E0,1.5047794E1,2.8967894E1,1.875731E1,8.169617E0,2.9716473E0,7.7368574E0,6.3498077E0,1.6470024E1,1.2106848E1,8.164896E0,1.719315E-1,0E0,0E0,0E0,0E0,0E0,0E0,0E0,0E0,0E0,0E0,0E0,0E0,0E0,0E0,0E0,0E0,0E0,0E0,0E0,0E0,0E0,0E0,0E0,0E0,0E0,0E0,0E0,0E0],"parents":[2147483647,0,0,1,1,2,2,3,3,4,4,5,5,6,6,7,7,8,8,9,9,10,10,11,11,12,12,13,13,14,14,15,15,16,16,19,19,20,20,21,21,22,22,23,23,24,24,25,25,26,26,27,27,28,28,29,29,30,30],"right_children":[2,4,6,8,10,12,14,16,18,20,22,24,26,28,30,32,34,-1,-1,36,38,40,42,44,46,48,50,52,54,56,58,-1,-1,-1,-1,-1,-1,-1,-1,-1,-1,-1,-1,-1,-1,-1,-1,-1,-1,-1,-1,-1,-1,-1,-1,-1,-1,-1,-1],"split_conditions":[2.95E0,1.836E1,3.5E1,7.735E1,2.1E1,3.129E1,6.841E0,9.49E-1,1.854E1,3.11E0,1.415E1,2.585E1,7.988E0,1.21E1,3.7E1,6.531E1,2.4E0,-6.177232E-2,1.6197798E-1,1.0655E1,2.301E1,2.04E0,4.7E-1,1.875E1,2.916E1,1.868E1,2.099E1,8.034E1,2.609E1,5.8E1,6.6E-1,-4.296138E-2,9.557589E-2,2.2464171E-2,-2.1755113E-1,-1.8945543E-1,6.81558E-2,2.4533889E-1,-1.5256783E-1,3.8479102E-1,-1.3015443E-1,-3.316642E-2,4.598072E-2,-1.9348103E-1,7.5836023E-3,-3.5106245E-1,-5.2508328E-2,7.919258E-2,-2.3929623E-1,2.8948933E-1,-6.284078E-2,4.6628216E-1,-1.1659155E-1,-1.09966405E-1,2.5675616E-1,3.7164542E-1,-5.237722E-2,-1.331136E-1,-0E0],"split_indices":[7,4,0,8,0,6,12,12,5,9,5,6,11,5,0,8,9,0,0,3,6,9,7,5,6,3,5,8,6,10,1,0,0,0,0,0,0,0,0,0,0,0,0,0,0,0,0,0,0,0,0,0,0,0,0,0,0,0,0],"split_type":[0,0,0,0,0,0,0,0,0,0,0,0,0,0,0,0,0,0,0,0,0,0,0,0,0,0,0,0,0,0,0,0,0,0,0,0,0,0,0,0,0,0,0,0,0,0,0,0,0,0,0,0,0,0,0,0,0,0,0],"sum_hessian":[1.2373396E3,1.0341969E3,2.0314268E2,3.8147984E1,9.960489E2,1.24813614E2,7.832907E1,3.3145103E1,5.0028796E0,6.2317307E1,9.3373157E2,9.4617386E1,3.0196222E1,5.8443577E1,1.988549E1,2.735771E0,3.0409332E1,1.6932598E0,3.30962E0,1.0416718E1,5.190059E1,1.0191463E2,8.3181696E2,7.4239815E1,2.0377577E1,1.4432146E1,1.5764076E1,7.282361E0,5.1161217E1,1.5393612E1,4.491879E0,1.1929379E0,1.5428331E0,1.842197E0,2.8567137E1,9.21437E0,1.2023476E0,4.7349945E1,4.5506434E0,4.4951E0,9.7419525E1,3.352384E2,4.9657855E2,5.862573E1,1.5614081E1,1.4963019E1,5.414558E0,5.86136E0,8.5707855E0,1.3498393E1,2.265683E0,3.9149013E0,3.3674595E0,4.7771473E1,3.3897445E0,1.322501E1,2.1686013E0,3.4455318E0,1.0463469E0],"tree_param":{"num_deleted":"0","num_feature":"25","num_nodes":"59","size_leaf_vector":"1"}},{"base_weights":[-2.0177957E-2,-3.8355538E-1,1.4605182E-3,5.1989462E-2,-6.3043493E-1,-3.044482E-1,3.1534787E-2,2.996662E-1,-3.1471094E-1,-7.4825287E-1,-0E0,-6.7624617E-1,-1.2569577E-3,3.5352954E-1,-1.01532275E-2,5.9994966E-1,-0E0,-5.035161E-1,4.453264E-2,-0E0,-8.060318E-1,5.3940195E-1,-1.2188402E-1,-9.084481E-1,3.4939334E-1,-2.2653408E-1,4.5085084E-1,-4.3440763E-2,7.082103E-1,2.9875603E-1,-6.5185145E-2,2.0545557E-1,-3.4891788E-2,8.725299E-2,-1.6700879E-1,-0E0,-1.6192293E-1,6.521959E-2,-5.1285204E-2,-0E0,-2.1532598E-1,1.858756E-1,-0E0,-2.6535887E-1,-0E0,-1.632477E-2,1.4598587E-1,-2.0727693E-1,6.265029E-2,-1.4197205E-1,2.2744939E-1,1.1566725E-1,-1.8251084E-1,5.259403E-2,3.1387347E-1,1.8457295E-1,-1.5721873E-4,-2.2198562E-1,-8.275588E-3],"categories":[],"categories_nodes":[],"categories_segments":[],"categories_sizes":[],"default_left":[0,0,0,0,0,0,0,0,0,0,0,0,0,0,0,0,0,0,0,0,0,0,0,0,0,0,0,0,0,0,0,0,0,0,0,0,0,0,0,0,0,0,0,0,0,0,0,0,0,0,0,0,0,0,0,0,0,0,0],"id":21,"left_children":[1,3,5,7,9,11,13,15,17,19,21,23,25,27,29,31,33,35,-1,37,39,41,-1,43,45,47,49,51,53,55,57,-1,-1,-1,-1,-1,-1,-1,-1,-1,-1,-1,-1,-1,-1,-1,-1,-1,-1,-1,-1,-1,-1,-1,-1,-1,-1,-1,-1],"loss_changes":[9.735178E0,7.8787966E0,1.0454561E1,2.83376E0,3.6491127E0,1.1106579E1,1.4271877E1,1.9412028E0,1.5727006E0,1.8644085E0,3.476495E0,1.2076683E1,6.375423E0,1.7585388E1,1.5781929E1,2.1184397E0,3.5513039E0,9.133673E-1,0E0,4.8185736E-1,6.1156845E-1,8.5437655E-1,0E0,3.5434036E0,1.2830935E0,1.2486343E1,1.0478818E1,2.0545565E1,1.4895401E1,1.7595003E1,2.0365187E1,0E0,0E0,0E0,0E0,0E0,0E0,0E0,0E0,0E0,0E0,0E0,0E0,0E0,0E0,0E0,0E0,0E0,0E0,0E0,0E0,0E0,0E0,0E0,0E0,0E0,0E0,0E0,0E0],"parents":[2147483647,0,0,1,1,2,2,3,3,4,4,5,5,6,6,7,7,8,8,9,9,10,10,11,11,12,12,13,13,14,14,15,15,16,16,17,17,19,19,20,20,21,21,23,23,24,24,25,25,26,26,27,27,28,28,29,29,30,30],"right_children":[2,4,6,8,10,12,14,16,18,20,22,24,26,28,30,32,34,36,-1,38,40,42,-1,44,46,48,50,52,54,56,58,-1,-1,-1,-1,-1,-1,-1,-1,-1,-1,-1,-1,-1,-1,-1,-1,-1,-1,-1,-1,-1,-1,-1,-1,-1,-1,-1,-1],"split_conditions":[9E-1,3.28E-1,2.297E1,3.55E0,1E0,5.179E0,8.412E0,7.326E1,2.95E-1,2.71E0,3.827E1,2.683E0,7.498E1,2.04E1,6.575E1,1.795E1,1.3102E1,3.378E1,4.453264E-2,4.18E-1,1.752E1,4.77E-1,-1.2188402E-1,7.74E1,3.367E1,3.51E0,1.2532E1,4.92E0,5.17E-1,1.816E1,6.837E1,2.0545557E-1,-3.4891788E-2,8.725299E-2,-1.6700879E-1,-0E0,-1.6192293E-1,6.521959E-2,-5.1285204E-2,-0E0,-2.1532598E-1,1.858756E-1,-0E0,-2.6535887E-1,-0E0,-1.632477E-2,1.4598587E-1,-2.0727693E-1,6.265029E-2,-1.4197205E-1,2.2744939E-1,1.1566725E-1,-1.8251084E-1,5.259403E-2,3.1387347E-1,1.8457295E-1,-1.5721873E-4,-2.2198562E-1,-8.275588E-3],"split_indices":[12,2,4,9,24,11,3,8,2,10,4,14,8,6,8,3,3,4,0,1,6,2,0,8,6,9,3,11,1,5,8,0,0,0,0,0,0,0,0,0,0,0,0,0,0,0,0,0,0,0,0,0,0,0,0,0,0,0,0],"split_type":[0,0,0,0,0,0,0,0,0,0,0,0,0,0,0,0,0,0,0,0,0,0,0,0,0,0,0,0,0,0,0,0,0,0,0,0,0,0,0,0,0,0,0,0,0,0,0,0,0,0,0,0,0,0,0,0,0,0,0],"sum_hessian":[1.2100637E3,6.601604E1,1.1440476E3,2.4149378E1,4.1866657E1,9.805879E1,1.0459889E3,1.5609641E1,8.539737E0,3.522244E1,6.6442194E0,4.1370846E1,5.668795E1,1.1827273E2,9.277161E2,6.66072E0,8.948921E0,6.8004155E0,1.739321E0,2.482828E0,3.273961E1,3.2146802E0,3.4295392E0,3.445724E1,6.9136057E0,3.973896E1,1.694899E1,5.659328E1,6.1679443E1,1.3656317E2,7.9115295E2,5.6184115E0,1.0423082E0,6.598113E0,2.350808E0,1.2124568E0,5.587959E0,1.2012326E0,1.2815953E0,1.0204884E0,3.1719122E1,1.9942137E0,1.2204664E0,2.9974566E1,4.4826736E0,2.3849769E0,4.5286283E0,1.7264616E1,2.2474342E1,4.4045978E0,1.2544393E1,3.2712364E1,2.3880919E1,3.356706E1,2.8112387E1,5.6220608E1,8.034257E1,2.8003914E1,7.63149E2],"tree_param":{"num_deleted":"0","num_feature":"25","num_nodes":"59","size_leaf_vector":"1"}},{"base_weights":[-1.7989403E-2,-6.942419E-3,-7.3711514E-1,-9.9439315E-2,7.5272985E-2,-0E0,-7.7495E-1,1.2589838E-1,-2.532949E-1,-1.1439599E-3,3.4763226E-1,-8.153591E-1,-1.4515712E-3,6.6476977E-1,-3.283842E-2,-4.5305642E-1,-4.088954E-2,-1.4728795E-1,2.4639757E-1,6.53783E-1,-1.518636E-1,-0E0,-2.2042528E-1,-1.24242425E-1,2.4809219E-1,5.0665654E-2,-1.4092077E-1,-1.5245724E-1,2.7904278E-2,-8.0992945E-2,5.36351E-2,-1.4029452E-1,4.3276334E-3,8.086645E-3,1.9166827E-1,-2.7487168E-2,2.1318589E-1,-1.4016919E-1,6.8214044E-2],"categories":[],"categories_nodes":[],"categories_segments":[],"categories_sizes":[],"default_left":[0,0,0,0,0,0,0,0,0,0,0,0,0,0,0,0,0,0,0,0,0,0,0,0,0,0,0,0,0,0,0,0,0,0,0,0,0,0,0],"id":22,"left_children":[1,3,5,7,9,-1,11,13,15,17,19,21,-1,23,25,27,29,31,33,35,37,-1,-1,-1,-1,-1,-1,-1,-1,-1,-1,-1,-1,-1,-1,-1,-1,-1,-1],"loss_changes":[9.12332E0,9.039283E0,3.121643E-1,1.9637033E1,1.3198589E1,0E0,7.916641E-2,1.9962282E1,1.39476185E1,1.7829893E1,2.1785702E1,6.055832E-4,0E0,1.934193E1,2.13364E1,1.3281834E1,1.1511267E1,2.035897E1,1.8787895E1,1.1662796E1,9.434954E0,0E0,0E0,0E0,0E0,0E0,0E0,0E0,0E0,0E0,0E0,0E0,0E0,0E0,0E0,0E0,0E0,0E0,0E0],"parents":[2147483647,0,0,1,1,2,2,3,3,4,4,6,6,7,7,8,8,9,9,10,10,11,11,13,13,14,14,15,15,16,16,17,17,18,18,19,19,20,20],"right_children":[2,4,6,8,10,-1,12,14,16,18,20,22,-1,24,26,28,30,32,34,36,38,-1,-1,-1,-1,-1,-1,-1,-1,-1,-1,-1,-1,-1,-1,-1,-1,-1,-1],"split_conditions":[1E0,3.4E1,9E0,1.6E-1,1.855E1,-0E0,1.5E0,2.302E1,1E0,5.006E1,3.486E1,2.1E1,-1.4515712E-3,9.42E0,4.46E0,1.994E1,1.371E1,4.8E-1,5.341E0,3.01E0,7.576E1,-0E0,-2.2042528E-1,-1.24242425E-1,2.4809219E-1,5.0665654E-2,-1.4092077E-1,-1.5245724E-1,2.7904278E-2,-8.0992945E-2,5.36351E-2,-1.4029452E-1,4.3276334E-3,8.086645E-3,1.9166827E-1,-2.7487168E-2,2.1318589E-1,-1.4016919E-1,6.8214044E-2],"split_indices":[21,0,10,7,5,0,13,6,18,4,4,0,0,5,11,5,3,7,12,9,8,0,0,0,0,0,0,0,0,0,0,0,0,0,0,0,0,0,0],"split_type":[0,0,0,0,0,0,0,0,0,0,0,0,0,0,0,0,0,0,0,0,0,0,0,0,0,0,0,0,0,0,0,0,0,0,0,0,0,0,0],"sum_hessian":[1.1940145E3,1.1801151E3,1.389948E1,5.578505E2,6.222645E2,1.1376947E0,1.27617855E1,2.2528424E2,3.3256628E2,4.8721432E2,1.350502E2,1.1308712E1,1.4530735E0,4.944005E1,1.758442E2,1.681275E2,1.644388E2,3.085119E2,1.7870242E2,8.3680626E1,5.136958E1,1.1104444E0,1.0198267E1,9.182596E0,4.0257454E1,1.22319496E2,5.3524708E1,1.3640573E2,3.172176E1,7.902769E1,8.541111E1,8.9458595E1,2.1905331E2,1.2750855E2,5.119388E1,1.4709577E1,6.897105E1,2.6627783E1,2.4741795E1],"tree_param":{"num_deleted":"0","num_feature":"25","num_nodes":"39","size_leaf_vector":"1"}},{"base_weights":[-1.5690764E-2,-1.4835491E-3,-5.2133816E-1,-2.8910378E-2,3.7426227E-1,7.676745E-1,-8.304004E-1,-1.1656856E-2,-7.3390234E-1,-4.569528E-1,5.5917346E-1,3.4320012E-1,-7.744081E-2,-9.354017E-1,5.6276415E-2,1.375075E-2,-4.5923433E-1,3.3102992E-1,-9.287444E-1,2.065759E-1,-1.9728358E-1,1.1811398E0,2.4260315E-1,-9.7209215E-1,-0E0,-2.751604E-3,1.8096946E-1,1.5133795E-1,-1.8256903E-1,1.3080774E-1,-0E0,-2.838279E-1,-0E0,-7.866319E-2,1.8465585E-1,3.340984E-1,-0E0,-1.7248128E-1,1.654605E-1,-2.6938984E-1,-7.4170656E-3],"categories":[],"categories_nodes":[],"categories_segments":[],"categories_sizes":[],"default_left":[0,0,0,0,0,0,0,0,0,0,0,0,0,0,0,0,0,0,0,0,0,0,0,0,0,0,0,0,0,0,0,0,0,0,0,0,0,0,0,0,0],"id":23,"left_children":[1,3,5,7,9,11,13,15,17,19,21,-1,-1,23,-1,25,27,29,31,33,-1,35,37,39,-1,-1,-1,-1,-1,-1,-1,-1,-1,-1,-1,-1,-1,-1,-1,-1,-1],"loss_changes":[8.099412E0,1.1581213E1,1.4550823E1,1.2539579E1,1.2680355E1,6.2840514E0,4.022114E0,1.2104004E1,6.4936237E0,3.8944495E0,1.09892235E1,0E0,0E0,8.375683E-1,0E0,1.6791367E1,1.5956059E1,5.721352E-1,3.780014E0,2.7573454E0,0E0,2.6974144E0,1.8480246E1,8.450241E-1,0E0,0E0,0E0,0E0,0E0,0E0,0E0,0E0,0E0,0E0,0E0,0E0,0E0,0E0,0E0,0E0,0E0],"parents":[2147483647,0,0,1,1,2,2,3,3,4,4,5,5,6,6,7,7,8,8,9,9,10,10,13,13,15,15,16,16,17,17,18,18,19,19,21,21,22,22,23,23],"right_children":[2,4,6,8,10,12,14,16,18,20,22,-1,-1,24,-1,26,28,30,32,34,-1,36,38,40,-1,-1,-1,-1,-1,-1,-1,-1,-1,-1,-1,-1,-1,-1,-1,-1,-1],"split_conditions":[2.149E1,2.022E1,3E0,1.8062E1,2.81E0,4.24E-1,7.84E-1,1.955E1,2E-2,2.32E0,2.91E0,3.4320012E-1,-7.744081E-2,6.9E-1,5.6276415E-2,1.945E1,2.42E0,3.85E-1,3.8E1,2.099E1,-1.9728358E-1,4.042E1,3.44E0,1.898E0,-0E0,-2.751604E-3,1.8096946E-1,1.5133795E-1,-1.8256903E-1,1.3080774E-1,-0E0,-2.838279E-1,-0E0,-7.866319E-2,1.8465585E-1,3.340984E-1,-0E0,-1.7248128E-1,1.654605E-1,-2.6938984E-1,-7.4170656E-3],"split_indices":[5,5,10,11,9,13,2,5,10,9,9,0,0,1,0,5,9,1,0,5,0,4,9,14,0,0,0,0,0,0,0,0,0,0,0,0,0,0,0,0,0],"split_type":[0,0,0,0,0,0,0,0,0,0,0,0,0,0,0,0,0,0,0,0,0,0,0,0,0,0,0,0,0,0,0,0,0,0,0,0,0,0,0,0,0],"sum_hessian":[1.160714E3,1.1333688E3,2.7345251E1,1.0605197E3,7.284916E1,3.9711785E0,2.3374073E1,1.0393503E3,2.1169294E1,1.1827742E1,6.1021416E1,2.3739638E0,1.5972147E0,2.2016045E1,1.3580291E0,9.856721E2,5.3678246E1,2.4988687E0,1.8670425E1,3.525487E0,8.302255E0,1.682574E1,4.4195675E1,2.10126E1,1.003444E0,9.5434796E2,3.1324114E1,8.841261E0,4.4836987E1,1.3574338E0,1.1414349E0,1.571931E1,2.9511151E0,1.9544313E0,1.5710557E0,1.5306628E1,1.5191123E0,1.2278962E1,3.1916714E1,1.8859728E1,2.152872E0],"tree_param":{"num_deleted":"0","num_feature":"25","num_nodes":"41","size_leaf_vector":"1"}},{"base_weights":[-1.1680856E-2,2.347199E-2,-2.383726E-1,3.6326617E-2,-6.5942585E-1,-8.848064E-1,-4.5960512E-2,6.597217E-2,-2.712309E-1,9.123099E-2,-8.6502E-1,-0E0,-9.729547E-1,-5.464824E-1,9.520068E-2,-4.7359418E-2,1.570231E-1,-7.131314E-1,3.5808012E-1,-2.7967092E-1,2.1448645E-3,6.9808915E-2,-4.7270425E-2,-2.6290247E-1,-0E0,-8.1898004E-1,7.6083176E-2,2.860818E-1,-6.96743E-1,7.639504E-2,-4.3775987E-2,5.190037E-2,-1.0083273E-1,2.2219792E-2,-2.2159632E-1,1.4515215E-1,-1.3157561E-1,-5.0895553E-2,7.505229E-2,8.33991E-2,-2.5260222E-1,-1.11035526E-1,1.0418714E-1,8.039458E-3,2.4250941E-1,-0E0,-2.0068592E-1],"categories":[],"categories_nodes":[],"categories_segments":[],"categories_sizes":[],"default_left":[0,0,0,0,0,0,0,0,0,0,0,0,0,0,0,0,0,0,0,0,0,0,0,0,0,0,0,0,0,0,0,0,0,0,0,0,0,0,0,0,0,0,0,0,0,0,0],"id":24,"left_children":[1,3,5,7,9,11,13,15,17,-1,19,21,23,25,27,29,31,33,35,-1,37,-1,-1,-1,-1,39,41,43,45,-1,-1,-1,-1,-1,-1,-1,-1,-1,-1,-1,-1,-1,-1,-1,-1,-1,-1],"loss_changes":[9.287259E0,8.519596E0,1.886361E1,8.914352E0,5.0322027E0,3.1770306E0,9.234209E0,9.368332E0,2.4860134E1,0E0,3.517294E0,5.1345944E-1,9.4493675E-1,5.472025E0,1.5555317E1,1.6674898E1,1.18344755E1,6.405201E0,7.4421387E0,0E0,5.963114E-1,0E0,0E0,0E0,0E0,5.0459137E0,2.448806E0,1.3158673E1,1.4160585E0,0E0,0E0,0E0,0E0,0E0,0E0,0E0,0E0,0E0,0E0,0E0,0E0,0E0,0E0,0E0,0E0,0E0,0E0],"parents":[2147483647,0,0,1,1,2,2,3,3,4,4,5,5,6,6,7,7,8,8,10,10,11,11,12,12,13,13,14,14,15,15,16,16,17,17,18,18,20,20,25,25,26,26,27,27,28,28],"right_children":[2,4,6,8,10,12,14,16,18,-1,20,22,24,26,28,30,32,34,36,-1,38,-1,-1,-1,-1,40,42,44,46,-1,-1,-1,-1,-1,-1,-1,-1,-1,-1,-1,-1,-1,-1,-1,-1,-1,-1],"split_conditions":[3.32E0,2.1291E1,4.17E0,4.57E0,1.746E1,9E-1,7.73E1,9E-1,1.4287E1,9.123099E-2,9.3E1,4.57E-1,2.12E1,6.44E0,6.65E0,1.697E0,6.82E-1,1.244E1,7.061E0,-2.7967092E-1,1E0,6.9808915E-2,-4.7270425E-2,-2.6290247E-1,-0E0,2.8E0,1.923E1,6.18E0,1.127E1,7.639504E-2,-4.3775987E-2,5.190037E-2,-1.0083273E-1,2.2219792E-2,-2.2159632E-1,1.4515215E-1,-1.3157561E-1,-5.0895553E-2,7.505229E-2,8.33991E-2,-2.5260222E-1,-1.11035526E-1,1.0418714E-1,8.039458E-3,2.4250941E-1,-0E0,-2.0068592E-1],"split_indices":[7,3,7,9,5,11,8,14,3,0,10,1,5,7,7,11,2,5,11,0,24,0,0,0,0,9,5,7,10,0,0,0,0,0,0,0,0,0,0,0,0,0,0,0,0,0,0],"split_type":[0,0,0,0,0,0,0,0,0,0,0,0,0,0,0,0,0,0,0,0,0,0,0,0,0,0,0,0,0,0,0,0,0,0,0,0,0,0,0,0,0,0,0,0,0,0,0],"sum_hessian":[1.1460028E3,9.929578E2,1.5304495E2,9.785833E2,1.4374516E1,3.1620012E1,1.21424934E2,8.9654047E2,8.204283E1,1.6010959E0,1.2773419E1,2.7192605E0,2.8900751E1,2.5280184E1,9.614475E1,3.977041E2,4.9883636E2,4.8391083E1,3.3651752E1,1.0063937E1,2.7094822E0,1.423556E0,1.2957045E0,2.7422558E1,1.4781935E0,1.7374327E1,7.905856E0,7.978202E1,1.6362734E1,1.0173432E2,2.959698E2,4.6557483E2,3.326156E1,6.848447E0,4.1542633E1,2.8797583E1,4.854169E0,1.2262111E0,1.4832711E0,1.2087272E0,1.61656E1,2.063411E0,5.8424454E0,6.039234E1,1.9389677E1,1.3015044E0,1.506123E1],"tree_param":{"num_deleted":"0","num_feature":"25","num_nodes":"47","size_leaf_vector":"1"}},{"base_weights":[-1.297865E-2,8.28137E-3,-3.0462843E-1,2.7698523E-1,-2.4505029E-2,-4.3363553E-1,4.0578765E-1,-6.7454554E-2,5.501739E-1,-2.2764467E-1,2.0392958E-2,-2.1281868E-1,-9.882967E-2,-1.1395913E-1,2.3068896E-1,-7.433653E-1,3.337661E-1,-4.4626263E-1,7.2277796E-1,2.8600636E-1,-5.3473824E-1,7.755381E-1,-2.6194759E-2,6.441623E-1,-5.347527E-1,9.210439E-3,-2.4511494E-1,-1.0213568E-1,1.9899482E-1,-1.5698004E-1,1.1692292E-2,2.2397119E-1,-1.1173039E-1,-1.5926878E-1,1.2063778E-1,1.1887935E-1,-1.9196294E-1,-1.7151855E-1,2.7752545E-1,-1.17491886E-1,6.5327235E-3,2.3262495E-1,-7.898484E-2,-1.585051E-1,1.6399514E-2],"categories":[],"categories_nodes":[],"categories_segments":[],"categories_sizes":[],"default_left":[0,0,0,0,0,0,0,0,0,0,0,0,0,0,0,0,0,0,0,0,0,0,0,0,0,0,0,0,0,0,0,0,0,0,0,0,0,0,0,0,0,0,0,0,0],"id":25,"left_children":[1,3,5,7,9,11,13,15,17,19,21,-1,23,-1,-1,25,27,29,31,33,35,37,39,41,43,-1,-1,-1,-1,-1,-1,-1,-1,-1,-1,-1,-1,-1,-1,-1,-1,-1,-1,-1,-1],"loss_changes":[7.191141E0,9.481213E0,7.8488245E0,1.1392515E1,8.74387E0,8.143562E0,6.9981785E0,1.5748729E1,1.2706362E1,2.8021236E1,2.7731556E1,0E0,1.4608485E1,0E0,0E0,3.941061E0,1.24996395E1,1.2685726E0,1.085228E1,1.1567961E1,2.361423E1,2.1856676E1,1.6273281E1,5.1721363E0,1.6847372E0,0E0,0E0,0E0,0E0,0E0,0E0,0E0,0E0,0E0,0E0,0E0,0E0,0E0,0E0,0E0,0E0,0E0,0E0,0E0,0E0],"parents":[2147483647,0,0,1,1,2,2,3,3,4,4,5,5,6,6,7,7,8,8,9,9,10,10,12,12,15,15,16,16,17,17,18,18,19,19,20,20,21,21,22,22,23,23,24,24],"right_children":[2,4,6,8,10,12,14,16,18,20,22,-1,24,-1,-1,26,28,30,32,34,36,38,40,42,44,-1,-1,-1,-1,-1,-1,-1,-1,-1,-1,-1,-1,-1,-1,-1,-1,-1,-1,-1,-1],"split_conditions":[1.3194E2,8.407E0,3.423E1,5.1E-1,1.481E1,3.2E0,2.121E0,3.5E1,2.706E1,2.545E0,1.506E1,-2.1281868E-1,3.39E0,-1.1395913E-1,2.3068896E-1,3.14E-1,1.37E1,2.271E1,8.445E1,1.5E0,1.2E-1,4.8E-1,1.582E1,2.339E1,6.191E1,9.210439E-3,-2.4511494E-1,-1.0213568E-1,1.9899482E-1,-1.5698004E-1,1.1692292E-2,2.2397119E-1,-1.1173039E-1,-1.5926878E-1,1.2063778E-1,1.1887935E-1,-1.9196294E-1,-1.7151855E-1,2.7752545E-1,-1.17491886E-1,6.5327235E-3,2.3262495E-1,-7.898484E-2,-1.585051E-1,1.6399514E-2],"split_indices":[10,3,6,1,5,9,14,10,4,11,5,0,9,0,0,1,5,6,8,12,7,7,5,6,4,0,0,0,0,0,0,0,0,0,0,0,0,0,0,0,0,0,0,0,0],"split_type":[0,0,0,0,0,0,0,0,0,0,0,0,0,0,0,0,0,0,0,0,0,0,0,0,0,0,0,0,0,0,0,0,0,0,0,0,0,0,0,0,0,0,0,0,0],"sum_hessian":[1.1309504E3,1.055682E3,7.526846E1,1.136266E2,9.420554E2,6.545049E1,9.817971E0,5.061549E1,6.3011112E1,1.6996123E2,7.720942E2,2.7400387E1,3.8050106E1,3.3029122E0,6.515059E0,1.8206205E1,3.2409286E1,8.056326E0,5.495479E1,6.3074196E1,1.0688703E2,4.2306835E1,7.2978735E2,1.30273E1,2.5022804E1,3.7865381E0,1.4419667E1,1.1762702E1,2.0646584E1,6.263922E0,1.7924035E0,5.022983E1,4.724955E0,8.550552E0,5.4523643E1,1.7040215E1,8.984682E1,6.1146836E0,3.619215E1,7.6624275E1,6.531631E2,1.0876575E1,2.1507246E0,2.2919239E1,2.1035657E0],"tree_param":{"num_deleted":"0","num_feature":"25","num_nodes":"45","size_leaf_vector":"1"}},{"base_weights":[-1.3702118E-2,-4.9023163E-3,-1.9771096E-1,1.4125993E-2,-3.2123196E-1,-1.5040545E-2,3.920132E-1,-8.354923E-1,9.814947E-2,5.854978E-3,-8.441971E-1,6.3694847E-1,-2.2761017E-1,1.9115666E-1,-9.641292E-1,4.440387E-1,-7.9463327E-1,6.682483E-3,-1.5940924E-1,-4.2731035E-1,3.1708516E-2,-1.7519549E-1,2.1867445E-1,1.2131884E-1,-1.2325787E-1,-0E0,7.561796E-2,-0E0,-2.649034E-1,-4.565063E-2,2.1139462E-1,-0E0,-2.406861E-1],"categories":[],"categories_nodes":[],"categories_segments":[],"categories_sizes":[],"default_left":[0,0,0,0,0,0,0,0,0,0,0,0,0,0,0,0,0,0,0,0,0,0,0,0,0,0,0,0,0,0,0,0,0],"id":26,"left_children":[1,3,-1,5,7,9,11,13,15,17,19,21,23,25,27,29,31,-1,-1,-1,-1,-1,-1,-1,-1,-1,-1,-1,-1,-1,-1,-1,-1],"loss_changes":[6.9313636E0,6.8282237E0,0E0,1.1730583E1,1.4546545E1,1.7287191E1,1.2285842E1,4.9716473E0,1.2816745E1,1.1451047E1,2.0397812E1,1.7090698E1,4.816708E0,1.8770479E-1,1.4198112E0,7.698543E0,1.1669025E0,0E0,0E0,0E0,0E0,0E0,0E0,0E0,0E0,0E0,0E0,0E0,0E0,0E0,0E0,0E0,0E0],"parents":[2147483647,0,0,1,1,3,3,4,4,5,5,6,6,7,7,8,8,9,9,10,10,11,11,12,12,13,13,14,14,15,15,16,16],"right_children":[2,4,-1,6,8,10,12,14,16,18,20,22,24,26,28,30,32,-1,-1,-1,-1,-1,-1,-1,-1,-1,-1,-1,-1,-1,-1,-1,-1],"split_conditions":[8.528E1,1.9759E1,-1.9771096E-1,1.994E1,3.737E1,1.958E1,7.465E1,1.52E-1,2.092E1,3.111E1,3.76E-1,2.81E0,2.38E0,1.237E0,2.72E-1,3.336E1,1.4E1,6.682483E-3,-1.5940924E-1,-4.2731035E-1,3.1708516E-2,-1.7519549E-1,2.1867445E-1,1.2131884E-1,-1.2325787E-1,-0E0,7.561796E-2,-0E0,-2.649034E-1,-4.565063E-2,2.1139462E-1,-0E0,-2.406861E-1],"split_indices":[8,3,0,5,4,5,10,2,5,6,2,9,9,14,1,6,10,0,0,0,0,0,0,0,0,0,0,0,0,0,0,0,0],"split_type":[0,0,0,0,0,0,0,0,0,0,0,0,0,0,0,0,0,0,0,0,0,0,0,0,0,0,0,0,0,0,0,0,0],"sum_hessian":[1.1115575E3,1.1027546E3,8.802878E0,1.041847E3,6.0907585E1,9.6908734E2,7.2759705E1,2.6334644E1,3.4572945E1,9.4806744E2,2.1019926E1,5.265458E1,2.0105124E1,2.3100667E0,2.4024576E1,2.6590359E1,7.982585E0,9.2264575E2,2.5421703E1,1.0443608E1,1.0576318E1,5.67908E0,4.69755E1,3.916898E0,1.6188225E1,1.0810905E0,1.2289764E0,1.5099156E0,2.2514662E1,1.0104172E1,1.6486187E1,1.6599667E0,6.3226185E0],"tree_param":{"num_deleted":"0","num_feature":"25","num_nodes":"33","size_leaf_vector":"1"}},{"base_weights":[-1.4652526E-2,-5.6147976E-3,-2.0224041E-1,5.501828E-1,-1.5874054E-2,-2.5875154E-1,7.4339926E-1,2.6081435E-2,-1.4508145E-1,-0E0,-8.054654E-2,1.2935095E-1,2.280407E-1,2.241602E-3,1.2207488E0,-7.732743E-1,-0E0,-4.2704813E-2,9.829883E-2,7.2266404E-3,-1.356589E-1,-1.2907635E-1,4.5290548E-1,-5.889271E-2,-2.828051E-1,-1.3426717E-1,1.9433616E-2],"categories":[],"categories_nodes":[],"categories_segments":[],"categories_sizes":[],"default_left":[0,0,0,0,0,0,0,0,0,0,0,0,0,0,0,0,0,0,0,0,0,0,0,0,0,0,0],"id":27,"left_children":[1,3,-1,5,7,9,11,13,15,-1,-1,17,-1,19,21,23,25,-1,-1,-1,-1,-1,-1,-1,-1,-1,-1],"loss_changes":[7.222864E0,6.020863E0,0E0,3.9015446E0,5.937113E0,5.7527184E-2,4.8068237E-1,2.2638262E1,2.448961E1,0E0,0E0,8.9252573E-1,0E0,1.0577521E1,1.7576698E1,7.147484E0,8.688776E0,0E0,0E0,0E0,0E0,0E0,0E0,0E0,0E0,0E0,0E0],"parents":[2147483647,0,0,1,1,3,3,4,4,5,5,6,6,7,7,8,8,11,11,13,13,14,14,15,15,16,16],"right_children":[2,4,-1,6,8,10,12,14,16,-1,-1,18,-1,20,22,24,26,-1,-1,-1,-1,-1,-1,-1,-1,-1,-1],"split_conditions":[8.516E1,1.88E-1,-2.0224041E-1,8.29E0,2.732E1,1.3448E1,2.1E-1,2.713E1,2.867E1,-0E0,-8.054654E-2,2.995E1,2.280407E-1,1.642E1,1.4278E1,3.512E0,1.8E1,-4.2704813E-2,9.829883E-2,7.2266404E-3,-1.356589E-1,-1.2907635E-1,4.5290548E-1,-5.889271E-2,-2.828051E-1,-1.3426717E-1,1.9433616E-2],"split_indices":[8,1,0,10,6,3,7,6,6,0,0,6,0,3,3,11,5,0,0,0,0,0,0,0,0,0,0],"split_type":[0,0,0,0,0,0,0,0,0,0,0,0,0,0,0,0,0,0,0,0,0,0,0,0,0,0,0],"sum_hessian":[1.1026726E3,1.0938995E3,8.773026E0,1.5604199E1,1.0782953E3,2.2807097E0,1.332349E1,8.1317084E2,2.6512448E2,1.1485586E0,1.1321511E0,4.281899E0,9.041591E0,8.011096E2,1.2061215E1,4.6911613E1,2.1821286E2,1.5869784E0,2.6949203E0,7.679301E2,3.317955E1,2.6237001E0,9.437515E0,1.9907183E1,2.7004433E1,2.4959253E1,1.9325362E2],"tree_param":{"num_deleted":"0","num_feature":"25","num_nodes":"27","size_leaf_vector":"1"}},{"base_weights":[-1.3062165E-2,1.6170695E-2,-2.1601512E-1,5.0987568E-2,-1.8253972E-1,-7.274293E-1,-7.395514E-2,1.9624587E-3,3.5905424E-1,6.139964E-2,-5.797767E-1,3.8499087E-1,-9.252832E-1,3.9339137E-1,-1.7757039E-1,-1.8200071E-1,8.505668E-2,-5.278408E-1,6.001312E-1,-4.735994E-1,5.2091205E-1,-7.76582E-1,-0E0,2.0396909E-1,-2.9311305E-2,-0E0,-2.4575964E-1,-3.321473E-1,1.3456936E0,-6.397585E-1,-0E0,-1.17950805E-1,4.3913525E-2,4.967273E-3,1.1393006E-1,6.709962E-2,-1.9324675E-1,2.0185986E-1,-6.8688095E-2,-1.9756407E-1,1.0249568E-1,-1.3170196E-1,1.8452907E-1,-2.5832763E-1,1.1491878E-1,7.571107E-2,-1.7033297E-1,4.9564324E-2,-1.3801229E-1,-0E0,5.2449846E-1,-2.1951422E-1,8.803097E-2,1.4298438E-1,-5.8285885E-2],"categories":[],"categories_nodes":[],"categories_segments":[],"categories_sizes":[],"default_left":[0,0,0,0,0,0,0,0,0,0,0,0,0,0,0,0,0,0,0,0,0,0,0,0,0,0,0,0,0,0,0,0,0,0,0,0,0,0,0,0,0,0,0,0,0,0,0,0,0,0,0,0,0,0,0],"id":28,"left_children":[1,3,5,7,9,11,13,15,17,19,21,23,25,27,29,31,33,35,37,39,41,43,45,-1,-1,-1,-1,47,49,51,53,-1,-1,-1,-1,-1,-1,-1,-1,-1,-1,-1,-1,-1,-1,-1,-1,-1,-1,-1,-1,-1,-1,-1,-1],"loss_changes":[6.6306543E0,6.6187644E0,9.635073E0,1.2246904E1,1.414103E1,7.994766E0,5.695472E0,1.093442E1,2.4999886E1,2.3096771E1,5.9027367E0,1.9447271E0,3.7324905E-2,1.6612053E1,8.029589E0,2.1543192E1,1.1311167E1,5.191209E0,1.4654964E1,1.193155E1,1.1209106E1,1.2525553E1,4.3049183E0,0E0,0E0,0E0,0E0,2.0254498E0,8.247665E0,6.678046E0,9.534622E0,0E0,0E0,0E0,0E0,0E0,0E0,0E0,0E0,0E0,0E0,0E0,0E0,0E0,0E0,0E0,0E0,0E0,0E0,0E0,0E0,0E0,0E0,0E0,0E0],"parents":[2147483647,0,0,1,1,2,2,3,3,4,4,5,5,6,6,7,7,8,8,9,9,10,10,11,11,12,12,13,13,14,14,15,15,16,16,17,17,18,18,19,19,20,20,21,21,22,22,27,27,28,28,29,29,30,30],"right_children":[2,4,6,8,10,12,14,16,18,20,22,24,26,28,30,32,34,36,38,40,42,44,46,-1,-1,-1,-1,48,50,52,54,-1,-1,-1,-1,-1,-1,-1,-1,-1,-1,-1,-1,-1,-1,-1,-1,-1,-1,-1,-1,-1,-1,-1,-1],"split_conditions":[3.34E0,6.847E0,4.2E0,5.367E0,7.42E1,9.49E-1,8.322E0,3.16E0,1.829E1,7.167E1,2.587E1,1.71E1,1.16E-1,7.814E0,1.1698E1,7.613E1,1.0151E1,3.1E0,9.586E0,3.421E1,3.842E0,8.188E1,2.722E1,2.0396909E-1,-2.9311305E-2,-0E0,-2.4575964E-1,3.32E-1,6.6E-1,5.88E0,2.142E1,-1.17950805E-1,4.3913525E-2,4.967273E-3,1.1393006E-1,6.709962E-2,-1.9324675E-1,2.0185986E-1,-6.8688095E-2,-1.9756407E-1,1.0249568E-1,-1.3170196E-1,1.8452907E-1,-2.5832763E-1,1.1491878E-1,7.571107E-2,-1.7033297E-1,4.9564324E-2,-1.3801229E-1,-0E0,5.2449846E-1,-2.1951422E-1,8.803097E-2,1.4298438E-1,-5.8285885E-2],"split_indices":[7,12,7,12,8,11,3,9,10,8,6,6,2,3,3,8,11,9,11,6,11,8,6,0,0,0,0,2,1,9,6,0,0,0,0,0,0,0,0,0,0,0,0,0,0,0,0,0,0,0,0,0,0,0,0],"split_type":[0,0,0,0,0,0,0,0,0,0,0,0,0,0,0,0,0,0,0,0,0,0,0,0,0,0,0,0,0,0,0,0,0,0,0,0,0,0,0,0,0,0,0,0,0,0,0,0,0,0,0,0,0,0,0],"sum_hessian":[1.0952058E3,